{"learner":{"attributes":{"scikit_learn":"{\"_estimator_type\": \"classifier\"}"},"feature_names":["ClaimDuration_mean","ClaimDuration_max","ClaimDuration_min","NumDiagnosis_mean","NumDiagnosis_max","NumProcedure_mean","NumProcedure_max","RepeatedDiagnosisFlag_mean","ReimbToDurationRatio_mean","ReimbToDurationRatio_max","InscClaimAmtReimbursed_sum","InscClaimAmtReimbursed_mean","IPAnnualReimbursementAmt_sum","OPAnnualReimbursementAmt_sum","BeneID_nunique"],"feature_types":["float","int","int","float","int","float","int","float","float","float","int","float","int","int","int"],"gradient_booster":{"model":{"gbtree_model_param":{"num_parallel_tree":"1","num_trees":"500"},"iteration_indptr":[0,1,2,3,4,5,6,7,8,9,10,11,12,13,14,15,16,17,18,19,20,21,22,23,24,25,26,27,28,29,30,31,32,33,34,35,36,37,38,39,40,41,42,43,44,45,46,47,48,49,50,51,52,53,54,55,56,57,58,59,60,61,62,63,64,65,66,67,68,69,70,71,72,73,74,75,76,77,78,79,80,81,82,83,84,85,86,87,88,89,90,91,92,93,94,95,96,97,98,99,100,101,102,103,104,105,106,107,108,109,110,111,112,113,114,115,116,117,118,119,120,121,122,123,124,125,126,127,128,129,130,131,132,133,134,135,136,137,138,139,140,141,142,143,144,145,146,147,148,149,150,151,152,153,154,155,156,157,158,159,160,161,162,163,164,165,166,167,168,169,170,171,172,173,174,175,176,177,178,179,180,181,182,183,184,185,186,187,188,189,190,191,192,193,194,195,196,197,198,199,200,201,202,203,204,205,206,207,208,209,210,211,212,213,214,215,216,217,218,219,220,221,222,223,224,225,226,227,228,229,230,231,232,233,234,235,236,237,238,239,240,241,242,243,244,245,246,247,248,249,250,251,252,253,254,255,256,257,258,259,260,261,262,263,264,265,266,267,268,269,270,271,272,273,274,275,276,277,278,279,280,281,282,283,284,285,286,287,288,289,290,291,292,293,294,295,296,297,298,299,300,301,302,303,304,305,306,307,308,309,310,311,312,313,314,315,316,317,318,319,320,321,322,323,324,325,326,327,328,329,330,331,332,333,334,335,336,337,338,339,340,341,342,343,344,345,346,347,348,349,350,351,352,353,354,355,356,357,358,359,360,361,362,363,364,365,366,367,368,369,370,371,372,373,374,375,376,377,378,379,380,381,382,383,384,385,386,387,388,389,390,391,392,393,394,395,396,397,398,399,400,401,402,403,404,405,406,407,408,409,410,411,412,413,414,415,416,417,418,419,420,421,422,423,424,425,426,427,428,429,430,431,432,433,434,435,436,437,438,439,440,441,442,443,444,445,446,447,448,449,450,451,452,453,454,455,456,457,458,459,460,461,462,463,464,465,466,467,468,469,470,471,472,473,474,475,476,477,478,479,480,481,482,483,484,485,486,487,488,489,490,491,492,493,494,495,496,497,498,499,500],"tree_info":[0,0,0,0,0,0,0,0,0,0,0,0,0,0,0,0,0,0,0,0,0,0,0,0,0,0,0,0,0,0,0,0,0,0,0,0,0,0,0,0,0,0,0,0,0,0,0,0,0,0,0,0,0,0,0,0,0,0,0,0,0,0,0,0,0,0,0,0,0,0,0,0,0,0,0,0,0,0,0,0,0,0,0,0,0,0,0,0,0,0,0,0,0,0,0,0,0,0,0,0,0,0,0,0,0,0,0,0,0,0,0,0,0,0,0,0,0,0,0,0,0,0,0,0,0,0,0,0,0,0,0,0,0,0,0,0,0,0,0,0,0,0,0,0,0,0,0,0,0,0,0,0,0,0,0,0,0,0,0,0,0,0,0,0,0,0,0,0,0,0,0,0,0,0,0,0,0,0,0,0,0,0,0,0,0,0,0,0,0,0,0,0,0,0,0,0,0,0,0,0,0,0,0,0,0,0,0,0,0,0,0,0,0,0,0,0,0,0,0,0,0,0,0,0,0,0,0,0,0,0,0,0,0,0,0,0,0,0,0,0,0,0,0,0,0,0,0,0,0,0,0,0,0,0,0,0,0,0,0,0,0,0,0,0,0,0,0,0,0,0,0,0,0,0,0,0,0,0,0,0,0,0,0,0,0,0,0,0,0,0,0,0,0,0,0,0,0,0,0,0,0,0,0,0,0,0,0,0,0,0,0,0,0,0,0,0,0,0,0,0,0,0,0,0,0,0,0,0,0,0,0,0,0,0,0,0,0,0,0,0,0,0,0,0,0,0,0,0,0,0,0,0,0,0,0,0,0,0,0,0,0,0,0,0,0,0,0,0,0,0,0,0,0,0,0,0,0,0,0,0,0,0,0,0,0,0,0,0,0,0,0,0,0,0,0,0,0,0,0,0,0,0,0,0,0,0,0,0,0,0,0,0,0,0,0,0,0,0,0,0,0,0,0,0,0,0,0,0,0,0,0,0,0,0,0,0,0,0,0,0,0,0,0,0,0,0,0,0,0,0,0,0,0,0,0,0,0,0,0,0,0,0,0,0,0,0,0,0,0,0,0,0,0,0,0,0,0,0,0,0,0,0,0,0,0,0,0,0,0,0,0,0,0,0,0,0,0,0,0,0],"trees":[{"base_weights":[5.121728E-1,-4.254648E0,9.241542E-1,-4.6453924E0,-1.2821345E0,-1.607303E-1,1.056721E0,-4.889362E0,-2.349168E0,-2.3266876E-1,-2.6966205E-1,-1.0130801E0,9.775831E-1,-1.1091815E0,1.0741584E0,-5.208412E0,-1.7707679E0,3.820244E-1,-5.1171756E0,-2.447217E-1,5.279861E-1,-8.966055E-1,-2.6007372E-1,-3.2430342E-1,1.1013397E0,-2.5047532E-1,-2.0781514E-1,7.8957313E-1,1.1479341E0,-3.0028253E0,-5.4730844E0,-2.572803E-1,-7.351488E-1,8.7575275E-1,-1.6812587E-1,-4.283433E-2,-2.828709E-1,8.0361086E-1,-2.2183983E-1,-4.4415035E0,-7.558663E-1,-2.1292928E-1,5.407956E-1,1.1272832E0,1.0565819E-1,1.9366285E-1,-1.8928462E-1,1.4967756E-1,9.8303145E-1,5.580553E-1,1.1581051E0,-2.4942486E-1,-1.1270989E0,-3.014215E-1,-4.9017735E0,7.3965025E-1,-2.5295326E-1,9.775573E-1,-1.5064881E-3,9.873884E-1,-2.2825958E-1,-1.8928462E-1,5.2020717E-2,-2.654538E-1,-1.6662436E-2,-6.087684E-1,-3.8128092E0,9.866156E-1,-3.1300765E-1,1.138142E0,-1.5064881E-3,-4.283433E-2,4.3496396E-2,-1.6812587E-1,5.327319E-1,2.9094908E-1,-2.4308506E-1,1.0981313E0,5.7982093E-1,-2.2582488E-1,9.4831157E-1,1.1606998E0,5.434177E-1,-3.3072704E-1,-2.1292928E-1,-3.859177E0,-5.5826945E0,5.470075E-2,7.159498E-2,-1.5064881E-3,5.5227645E-2,1.06836E0,3.8465804E-1,-4.283433E-2,3.4165557E-2,-5.352068E-1,-2.3099498E-1,1.6657172E-1,-2.6675758E-1,5.3178698E-2,1.5336721E-2,4.785269E-2,-1.5922649E-1,5.7172097E-2,1.5336721E-2,9.210809E-1,-1.0268179E0,3.5637826E-1,-1.9494633E-1,6.996668E-1,1.1300492E0,-2.9770308E0,7.151949E-1,-1.6662436E-2,1.0025284E0,1.0287064E0,5.848213E-2,-1.5922649E-1,5.5227645E-2,-1.5922649E-1,6.993194E-3,-1.1213974E-1,-2.3497546E-1,-1.0531645E-1,-2.992353E-1,-5.4210823E-2,3.8426638E-2,5.601242E-2,1.5336721E-2,3.4165557E-2,-1.5064881E-3,-6.535006E-2,-7.421025E-3,-1.6662436E-2,3.4165557E-2,-1.6662436E-2,5.3418E-2,-1.7599516E-1,4.3496396E-2,2.501196E-2,-2.8316954E-2,4.5479592E-2,-1.5922649E-1,-1.5064881E-3,5.6727286E-2,-2.2295554E-1,3.4165557E-2,-9.819216E-3,3.9629325E-2,-1.6662436E-2,5.304448E-2,5.3478178E-2,9.958255E-3],"categories":[],"categories_nodes":[],"categories_segments":[],"categories_sizes":[],"default_left":[0,0,0,0,0,0,0,0,0,0,0,0,0,0,0,0,0,0,0,0,0,0,0,0,0,0,0,0,0,0,0,0,0,0,0,0,0,0,0,0,0,0,0,0,0,0,0,0,0,0,0,0,0,0,0,0,0,0,0,0,0,0,0,0,0,0,0,0,0,0,0,0,0,0,0,0,0,0,0,0,0,0,0,0,0,0,0,0,0,0,0,0,0,0,0,0,0,0,0,0,0,0,0,0,0,0,0,0,0,0,0,0,0,0,0,0,0,0,0,0,0,0,0,0,0,0,0,0,0,0,0,0,0,0,0,0,0,0,0,0,0,0,0,0,0,0,0,0,0,0,0,0,0],"id":0,"left_children":[1,3,5,7,9,11,13,15,17,19,-1,21,23,25,27,29,31,33,35,-1,37,39,-1,41,43,-1,45,47,49,51,53,-1,55,57,-1,-1,-1,59,61,63,65,-1,67,69,71,73,-1,75,77,79,81,-1,83,-1,85,87,-1,89,-1,91,93,-1,-1,-1,-1,95,97,99,101,103,-1,-1,-1,-1,105,107,-1,109,111,-1,113,115,117,119,-1,121,123,-1,125,-1,-1,127,129,-1,-1,131,-1,133,-1,-1,-1,-1,-1,-1,-1,135,137,139,-1,141,143,145,147,-1,149,151,-1,-1,-1,-1,-1,-1,-1,-1,-1,-1,-1,-1,-1,-1,-1,-1,-1,-1,-1,-1,-1,-1,-1,-1,-1,-1,-1,-1,-1,-1,-1,-1,-1,-1,-1,-1,-1],"loss_changes":[8.980308E3,4.1658838E2,6.0536646E2,1.6842334E2,1.8705829E2,4.464038E2,1.4281982E2,2.7870508E2,2.4968672E2,1.2958705E2,0E0,1.2363968E2,3.2108948E1,1.0597974E2,7.720801E1,1.3651367E2,9.538061E1,3.515926E1,3.277289E1,0E0,6.728545E0,1.2490886E2,0E0,6.3158146E1,4.5355377E0,0E0,3.775068E1,9.5067566E1,1.706665E1,1.0718683E2,4.4285645E1,0E0,1.4962697E2,1.5223761E0,0E0,0E0,0E0,4.661253E0,4.578622E1,3.2490967E1,1.0941388E2,0E0,6.22566E0,2.240158E0,4.9223256E0,3.0877045E1,0E0,1.2865839E2,2.6763977E1,1.0721097E2,3.9970703E0,0E0,4.0654957E1,0E0,6.3689697E1,4.16661E0,0E0,1.8994484E0,0E0,5.6723595E-1,3.0764508E0,0E0,0E0,0E0,0E0,6.783096E1,6.884621E1,2.2068596E-1,2.5263365E1,4.1558838E-1,0E0,0E0,0E0,0E0,1.4806206E1,4.9568985E1,0E0,5.036621E0,6.6280045E1,0E0,3.7448845E0,2.2060547E0,3.2963192E1,1.9960714E1,0E0,5.8288086E1,8.576465E1,0E0,6.7014155E0,0E0,0E0,3.324356E-1,5.082136E-1,0E0,0E0,6.998929E1,0E0,1.2798641E0,0E0,0E0,0E0,0E0,0E0,0E0,0E0,3.8382711E0,2.6873405E1,2.3375488E1,0E0,3.2744183E1,2.2385864E0,3.059755E1,9.267113E0,0E0,4.044506E0,6.27977E0,0E0,0E0,0E0,0E0,0E0,0E0,0E0,0E0,0E0,0E0,0E0,0E0,0E0,0E0,0E0,0E0,0E0,0E0,0E0,0E0,0E0,0E0,0E0,0E0,0E0,0E0,0E0,0E0,0E0,0E0,0E0,0E0,0E0,0E0,0E0,0E0,0E0],"parents":[2147483647,0,0,1,1,2,2,3,3,4,4,5,5,6,6,7,7,8,8,9,9,11,11,12,12,13,13,14,14,15,15,16,16,17,17,18,18,20,20,21,21,23,23,24,24,26,26,27,27,28,28,29,29,30,30,32,32,33,33,37,37,38,38,39,39,40,40,42,42,43,43,44,44,45,45,47,47,48,48,49,49,50,50,52,52,54,54,55,55,57,57,59,59,60,60,65,65,66,66,67,67,68,68,69,69,74,74,75,75,77,77,78,78,80,80,81,81,82,82,83,83,85,85,86,86,88,88,91,91,92,92,95,95,97,97,105,105,106,106,107,107,109,109,110,110,111,111,112,112,114,114,115,115],"right_children":[2,4,6,8,10,12,14,16,18,20,-1,22,24,26,28,30,32,34,36,-1,38,40,-1,42,44,-1,46,48,50,52,54,-1,56,58,-1,-1,-1,60,62,64,66,-1,68,70,72,74,-1,76,78,80,82,-1,84,-1,86,88,-1,90,-1,92,94,-1,-1,-1,-1,96,98,100,102,104,-1,-1,-1,-1,106,108,-1,110,112,-1,114,116,118,120,-1,122,124,-1,126,-1,-1,128,130,-1,-1,132,-1,134,-1,-1,-1,-1,-1,-1,-1,136,138,140,-1,142,144,146,148,-1,150,152,-1,-1,-1,-1,-1,-1,-1,-1,-1,-1,-1,-1,-1,-1,-1,-1,-1,-1,-1,-1,-1,-1,-1,-1,-1,-1,-1,-1,-1,-1,-1,-1,-1,-1,-1,-1,-1],"split_conditions":[2.8814E4,1.6852467E3,9.4981E4,2.1640588E-4,3.0267951E0,2.2E1,1.9E1,4.0028086E0,2.4449673E-2,1.8838405E2,-2.6966205E-1,7.5E-1,2.0111774E3,1.29E5,2.2E1,1.7142857E0,1.2307693E0,1.5E3,2.5521536E0,-2.447217E-1,2.4E3,1.948718E0,-2.6007372E-1,3.10468E-4,3.6E1,-2.5047532E-1,2.1113E5,1.65099E5,3.03E3,4E0,6E3,-2.572803E-1,2.1333334E0,2.9285715E0,-1.6812587E-1,-4.283433E-2,-2.828709E-1,6.360574E2,2.2E1,6.0240965E-2,1.39E2,-2.1292928E-1,5.362E4,5.0558563E-2,4.012345E3,3.8333333E3,-1.8928462E-1,6.9331377E3,8.366E2,5.7E1,8.466666E0,-2.4942486E-1,1.0909091E0,-3.014215E-1,9.5E2,2E0,-2.5295326E-1,2.75E2,-1.5064881E-3,1.7931035E0,2.9482412E0,-1.8928462E-1,5.2020717E-2,-2.654538E-1,-1.6662436E-2,4.325451E-2,2.0666666E0,3.6E1,8.754751E-3,8.233677E0,-1.5064881E-3,-4.283433E-2,4.3496396E-2,-1.6812587E-1,2E0,3.45E2,-2.4308506E-1,1.6597345E3,2.7396195E0,-2.2582488E-1,3.10468E-4,4.012345E3,6.6666665E3,5.9E2,-2.1292928E-1,2.1333333E2,1.3043479E0,5.470075E-2,5.060606E0,-1.5064881E-3,5.5227645E-2,2.873376E0,1E1,-4.283433E-2,3.4165557E-2,3.10468E-4,-2.3099498E-1,2.0434783E0,-2.6675758E-1,5.3178698E-2,1.5336721E-2,4.785269E-2,-1.5922649E-1,5.7172097E-2,1.5336721E-2,3.8636363E0,1.3197819E0,4.1407627E3,-1.9494633E-1,2.6176472E0,7.751938E-3,1.785799E-2,1.97878E5,-1.6662436E-2,2.047129E3,3.6E1,5.848213E-2,-1.5922649E-1,5.5227645E-2,-1.5922649E-1,6.993194E-3,-1.1213974E-1,-2.3497546E-1,-1.0531645E-1,-2.992353E-1,-5.4210823E-2,3.8426638E-2,5.601242E-2,1.5336721E-2,3.4165557E-2,-1.5064881E-3,-6.535006E-2,-7.421025E-3,-1.6662436E-2,3.4165557E-2,-1.6662436E-2,5.3418E-2,-1.7599516E-1,4.3496396E-2,2.501196E-2,-2.8316954E-2,4.5479592E-2,-1.5922649E-1,-1.5064881E-3,5.6727286E-2,-2.2295554E-1,3.4165557E-2,-9.819216E-3,3.9629325E-2,-1.6662436E-2,5.304448E-2,5.3478178E-2,9.958255E-3],"split_indices":[10,9,10,5,3,1,1,3,5,8,0,5,9,10,1,3,0,9,3,0,9,0,0,7,1,0,10,10,9,14,10,0,0,0,0,0,0,11,1,5,14,0,10,7,9,9,0,9,11,14,0,0,0,0,9,1,0,11,0,0,3,0,0,0,0,7,0,1,5,3,0,0,0,0,2,14,0,9,0,0,7,9,9,10,0,11,0,0,3,0,0,3,1,0,0,7,0,0,0,0,0,0,0,0,0,0,5,9,0,3,7,7,10,0,9,1,0,0,0,0,0,0,0,0,0,0,0,0,0,0,0,0,0,0,0,0,0,0,0,0,0,0,0,0,0,0,0,0,0,0,0,0,0],"split_type":[0,0,0,0,0,0,0,0,0,0,0,0,0,0,0,0,0,0,0,0,0,0,0,0,0,0,0,0,0,0,0,0,0,0,0,0,0,0,0,0,0,0,0,0,0,0,0,0,0,0,0,0,0,0,0,0,0,0,0,0,0,0,0,0,0,0,0,0,0,0,0,0,0,0,0,0,0,0,0,0,0,0,0,0,0,0,0,0,0,0,0,0,0,0,0,0,0,0,0,0,0,0,0,0,0,0,0,0,0,0,0,0,0,0,0,0,0,0,0,0,0,0,0,0,0,0,0,0,0,0,0,0,0,0,0,0,0,0,0,0,0,0,0,0,0,0,0,0,0,0,0,0,0],"sum_hessian":[4.569824E3,3.6279428E2,4.20703E3,3.2014737E2,4.2646923E1,4.5807498E2,3.748955E3,2.8837845E2,3.1768934E1,3.481587E1,7.831052E0,2.620022E2,1.9607278E2,2.9441498E1,3.7195134E3,2.610059E2,2.7372553E1,1.6424686E1,1.5344248E1,4.1216063E0,3.0694263E1,2.5609457E2,5.9076357E0,1.6879929E1,1.7919286E2,4.6711535E0,2.4770344E1,7.681436E2,2.9513699E3,2.9287828E1,2.3171806E2,5.495475E0,2.1877079E1,1.5188204E1,1.2364819E0,2.0177214E0,1.3326527E1,2.2391685E1,8.302577E0,8.612291E0,2.4748227E2,2.3355768E0,1.4544352E1,1.7451357E2,4.679295E0,2.3121702E1,1.6486425E0,1.7873184E2,5.8941174E2,5.0973923E1,2.900396E3,1.3420832E1,1.5866997E1,1.12657234E2,1.1906082E2,1.6931152E1,4.9459276E0,1.35826435E1,1.6055607E0,1.9043179E1,3.3485084E0,1.6486425E0,6.6539345E0,6.8693438E0,1.7429476E0,2.3726442E2,1.0217852E1,9.452895E0,5.091456E0,1.72908E2,1.6055607E0,2.0177214E0,2.661574E0,1.2364819E0,2.188522E1,1.7474762E2,3.9842193E0,4.571818E2,1.3222995E2,2.8851244E0,4.80888E1,2.8873198E3,1.3076178E1,1.353142E1,2.3355768E0,4.967231E1,6.938851E1,1.0646296E1,6.284856E0,1.6055607E0,1.1977082E1,1.610683E1,2.9363477E0,2.0177214E0,1.330787E0,2.3410452E2,3.159898E0,3.0737345E0,7.1441174E0,7.9847217E0,1.4681739E0,3.9923608E0,1.099095E0,1.7143982E2,1.4681739E0,1.7849777E1,4.035443E0,1.729616E2,1.7860293E0,3.560525E1,4.2157654E2,4.0785246E0,1.2815143E2,1.7429476E0,4.634585E1,1.9056917E2,2.6967507E3,1.099095E0,1.1977082E1,1.099095E0,1.2432325E1,1.8245655E1,3.1426653E1,7.8391933E0,6.154932E1,2.1551082E0,4.129748E0,1.4638657E1,1.4681739E0,1.330787E0,1.6055607E0,7.7360344E1,1.5674417E2,1.7429476E0,1.330787E0,1.7429476E0,1.610683E1,1.3738687E0,2.661574E0,1.500285E2,2.2933092E1,3.4506157E1,1.099095E0,1.6055607E0,4.1997098E2,2.7477374E0,1.330787E0,9.908138E0,1.18243286E2,1.7429476E0,4.4602905E1,1.8134796E2,9.221204E0],"tree_param":{"num_deleted":"0","num_feature":"15","num_nodes":"153","size_leaf_vector":"1"}},{"base_weights":[5.1678723E-1,-3.1611443E0,9.554077E-1,-3.8831232E0,-1.0126942E0,4.3072292E-1,1.1234897E0,-4.0914783E0,-1.5295173E0,5.8770765E-2,-2.5275807E0,-2.775423E-1,9.3700147E-1,1.1265442E0,-2.4667467E-1,-4.251941E0,-2.3113313E0,-5.572723E-1,-2.1765529E-1,-3.8865166E0,3.704758E-1,-1.5178582E-1,-2.4855876E-1,-1.8018816E-1,9.584281E-1,1.0144006E0,1.1436034E0,-1.5893248E-1,4.9889095E-2,-2.4872155E0,-4.460937E0,7.6998025E-1,-4.1797514E0,-2.111647E-1,8.5524863E-1,-2.3475313E-1,-2.027389E0,9.537638E-1,-1.7853211E-1,-2.4009739E-1,-4.8605252E-2,5.911477E-1,1.0763932E0,1.0439993E0,-7.939845E-2,-2.1035231E-3,1.1443186E0,-2.3408572E-1,-1.01225E0,-4.6786876E0,-3.8138769E0,9.8618007E-1,-1.6625179E-2,-2.299985E-1,1.6879288E-2,9.83473E-1,1.4645219E-1,-2.332005E-1,-3.0685285E-1,-2.9403767E-2,5.6391686E-2,-7.7001274E-1,1.6276184E-1,-1.6975304E-1,6.6139364E-1,9.5161057E-1,5.9050452E-2,1.0784653E0,2.2285143E-1,-1.0427808E0,5.357423E-1,1.3965591E-2,1.1446694E0,4.0931433E-1,-2.2128637E-1,-2.3815098E-1,-3.2982147E0,-1.5784779E0,-4.5173807E0,1.8156433E-2,5.285105E-2,5.517867E-2,-2.4604872E-3,-1.7578026E-2,3.357448E-2,6.538447E-1,-1.7209372E-1,-3.919569E0,-1.6134734E-1,4.702801E-1,-2.6143903E-1,4.5514098E-1,5.496013E-2,1.033683E0,2.0972621E-1,1.0856861E0,-1.814523E-2,5.8187443E-1,-1.42326E-1,-1.689419E-1,4.2628355E-2,-3.185937E-2,4.9608193E-2,1.5730215E-2,1.1450117E0,-4.024869E-2,3.4316696E-2,-5.445391E-3,-1.9096191E-1,-2.1250303E-1,-1.9155512E-2,-2.3274855E-1,-1.3979879E-2,4.5742985E-2,-1.5836649E-2,-2.200032E-1,-1.2733731E-3,9.140908E-3,-1.744663E-1,3.047289E-2,-1.8015914E-2,8.036215E-3,-1.04095876E-1,-6.267413E-2,2.5498932E-2,3.8963065E-2,5.402832E-2,-1.7259553E-1,2.9610429E-2,4.9024064E-2,5.675086E-2,-5.1380347E-2,4.504895E-2,5.624357E-2,5.8638792E-2],"categories":[],"categories_nodes":[],"categories_segments":[],"categories_sizes":[],"default_left":[0,0,0,0,0,0,0,0,0,0,0,0,0,0,0,0,0,0,0,0,0,0,0,0,0,0,0,0,0,0,0,0,0,0,0,0,0,0,0,0,0,0,0,0,0,0,0,0,0,0,0,0,0,0,0,0,0,0,0,0,0,0,0,0,0,0,0,0,0,0,0,0,0,0,0,0,0,0,0,0,0,0,0,0,0,0,0,0,0,0,0,0,0,0,0,0,0,0,0,0,0,0,0,0,0,0,0,0,0,0,0,0,0,0,0,0,0,0,0,0,0,0,0,0,0,0,0,0,0,0,0,0,0,0,0],"id":1,"left_children":[1,3,5,7,9,11,13,15,17,-1,19,21,23,25,27,29,31,33,-1,35,37,39,-1,-1,41,43,45,-1,-1,47,49,51,53,-1,55,-1,57,59,-1,-1,61,63,65,67,69,-1,71,-1,73,75,77,79,-1,-1,-1,81,83,-1,85,-1,-1,87,89,-1,91,93,-1,95,97,99,101,-1,103,105,-1,-1,107,109,111,-1,-1,-1,-1,-1,-1,113,-1,115,117,119,121,123,-1,125,127,129,-1,131,-1,-1,-1,-1,-1,-1,133,-1,-1,-1,-1,-1,-1,-1,-1,-1,-1,-1,-1,-1,-1,-1,-1,-1,-1,-1,-1,-1,-1,-1,-1,-1,-1,-1,-1,-1,-1],"loss_changes":[7.4191274E3,7.562085E2,3.618042E2,1.7343994E2,4.160298E2,3.5824146E2,1.3296631E1,8.616211E1,8.376967E1,0E0,2.926808E2,2.4533615E2,6.0118317E1,4.7783203E0,3.1411E1,1.0215723E2,1.7580368E2,1.3049663E2,0E0,6.6289246E1,5.9772465E1,1.9508394E2,0E0,0E0,2.4513062E1,1.3637848E1,2.3256836E0,0E0,0E0,1.0782164E2,2.066211E1,3.2263923E0,3.7272797E1,0E0,1.5391073E0,0E0,7.589291E1,6.607544E0,0E0,0E0,6.100356E1,4.2380383E1,4.595642E0,1.129892E1,7.64669E0,0E0,4.951172E-1,0E0,1.08919945E2,7.5825195E0,1.09591675E2,7.6024055E-2,0E0,0E0,0E0,1.9776287E0,1.2851052E0,0E0,3.6539616E1,0E0,0E0,1.7313548E2,4.051072E1,0E0,1.2293865E1,1.2262619E1,0E0,4.4637756E0,2.1144152E1,2.5020487E1,4.8937016E0,0E0,4.020996E-1,6.102289E0,0E0,0E0,2.4127472E1,6.001972E1,3.1302856E1,0E0,0E0,0E0,0E0,0E0,0E0,2.7103372E0,0E0,2.7276016E1,8.883989E1,2.1009819E1,1.00828575E2,9.823391E0,0E0,1.3561401E0,3.2392967E1,9.077759E-1,0E0,9.483752E0,0E0,0E0,0E0,0E0,0E0,0E0,1.8041992E-1,0E0,0E0,0E0,0E0,0E0,0E0,0E0,0E0,0E0,0E0,0E0,0E0,0E0,0E0,0E0,0E0,0E0,0E0,0E0,0E0,0E0,0E0,0E0,0E0,0E0,0E0,0E0,0E0,0E0,0E0],"parents":[2147483647,0,0,1,1,2,2,3,3,4,4,5,5,6,6,7,7,8,8,10,10,11,11,12,12,13,13,14,14,15,15,16,16,17,17,19,19,20,20,21,21,24,24,25,25,26,26,29,29,30,30,31,31,32,32,34,34,36,36,37,37,40,40,41,41,42,42,43,43,44,44,46,46,48,48,49,49,50,50,51,51,55,55,56,56,58,58,61,61,62,62,64,64,65,65,67,67,68,68,69,69,70,70,72,72,73,73,76,76,77,77,78,78,85,85,87,87,88,88,89,89,90,90,91,91,93,93,94,94,95,95,97,97,104,104],"right_children":[2,4,6,8,10,12,14,16,18,-1,20,22,24,26,28,30,32,34,-1,36,38,40,-1,-1,42,44,46,-1,-1,48,50,52,54,-1,56,-1,58,60,-1,-1,62,64,66,68,70,-1,72,-1,74,76,78,80,-1,-1,-1,82,84,-1,86,-1,-1,88,90,-1,92,94,-1,96,98,100,102,-1,104,106,-1,-1,108,110,112,-1,-1,-1,-1,-1,-1,114,-1,116,118,120,122,124,-1,126,128,130,-1,132,-1,-1,-1,-1,-1,-1,134,-1,-1,-1,-1,-1,-1,-1,-1,-1,-1,-1,-1,-1,-1,-1,-1,-1,-1,-1,-1,-1,-1,-1,-1,-1,-1,-1,-1,-1,-1],"split_conditions":[4.1673E4,2.1640588E-4,2.2E1,4.0028086E0,1E0,1.65099E5,9.333333E0,2.3277777E2,2.1333334E0,5.8770765E-2,2.2E1,3E0,4.348E4,1.4517E5,4E0,1.7142857E0,4.859833E2,1.2307693E0,-2.1765529E-1,9.094E4,3.5960414E0,1.3E1,-2.4855876E-1,-1.8018816E-1,1.796969E6,3E0,1.858E4,-1.5893248E-1,4.9889095E-2,8E3,1.1821E5,2.409091E0,2.973E4,-2.111647E-1,3.9970587E2,-2.3475313E-1,1.7465292E2,2.5363593E2,-1.7853211E-1,-2.4009739E-1,6.323E4,2.470138E0,3.072658E6,3.6E1,1.1371E5,-2.1035231E-3,2.0830321E0,-2.3408572E-1,1.5E4,1.8615376E2,2.177551E2,6E0,-1.6625179E-2,-2.299985E-1,1.6879288E-2,2E0,2.0830321E0,-2.332005E-1,2.111923E2,-2.9403767E-2,5.6391686E-2,1.16816025E2,1E1,-1.6975304E-1,5.142857E0,3.77224E6,5.9050452E-2,5.73696E5,4.3429966E0,6.8331824E2,3.512657E2,1.3965591E-2,2.556997E0,6.83E3,-2.2128637E-1,-2.3815098E-1,3.8E2,1.9714285E2,3.2393537E0,1.8156433E-2,5.285105E-2,5.517867E-2,-2.4604872E-3,-1.7578026E-2,3.357448E-2,3.1308E4,-1.7209372E-1,3.3030741E0,2E0,1.076127E6,2E0,1.9E1,5.496013E-2,2.1640588E-4,2.5789473E0,4.341078E2,-1.814523E-2,2.631088E2,-1.42326E-1,-1.689419E-1,4.2628355E-2,-3.185937E-2,4.9608193E-2,1.5730215E-2,6.0211E5,-4.024869E-2,3.4316696E-2,-5.445391E-3,-1.9096191E-1,-2.1250303E-1,-1.9155512E-2,-2.3274855E-1,-1.3979879E-2,4.5742985E-2,-1.5836649E-2,-2.200032E-1,-1.2733731E-3,9.140908E-3,-1.744663E-1,3.047289E-2,-1.8015914E-2,8.036215E-3,-1.04095876E-1,-6.267413E-2,2.5498932E-2,3.8963065E-2,5.402832E-2,-1.7259553E-1,2.9610429E-2,4.9024064E-2,5.675086E-2,-5.1380347E-2,4.504895E-2,5.624357E-2,5.8638792E-2],"split_indices":[10,5,1,3,6,10,0,8,0,0,1,6,13,10,2,3,11,0,0,13,3,1,0,0,12,6,13,0,0,12,13,3,10,0,11,0,8,8,0,0,10,0,13,1,13,0,0,0,12,8,11,4,0,0,0,0,0,0,8,0,0,8,4,0,0,12,0,13,3,8,8,0,3,13,0,0,11,11,3,0,0,0,0,0,0,10,0,0,6,12,6,1,0,5,3,8,0,8,0,0,0,0,0,0,10,0,0,0,0,0,0,0,0,0,0,0,0,0,0,0,0,0,0,0,0,0,0,0,0,0,0,0,0,0,0],"split_type":[0,0,0,0,0,0,0,0,0,0,0,0,0,0,0,0,0,0,0,0,0,0,0,0,0,0,0,0,0,0,0,0,0,0,0,0,0,0,0,0,0,0,0,0,0,0,0,0,0,0,0,0,0,0,0,0,0,0,0,0,0,0,0,0,0,0,0,0,0,0,0,0,0,0,0,0,0,0,0,0,0,0,0,0,0,0,0,0,0,0,0,0,0,0,0,0,0,0,0,0,0,0,0,0,0,0,0,0,0,0,0,0,0,0,0,0,0,0,0,0,0,0,0,0,0,0,0,0,0,0,0,0,0,0,0],"sum_hessian":[4.5960947E3,4.890546E2,4.10704E3,3.654418E2,1.2361281E2,9.973321E2,3.109708E3,3.3504337E2,3.0398413E1,5.066137E1,7.295144E1,4.1592294E2,5.814092E2,3.1029685E3,6.7395463E0,3.06066E2,2.8977383E1,2.3502996E1,6.8954144E0,4.9431366E1,2.3520079E1,4.0607532E2,9.847633E0,1.9453988E0,5.794638E2,4.176834E2,2.6852852E3,1.5450702E0,5.194476E0,3.3775196E1,2.722908E2,1.1160275E1,1.7817106E1,5.983548E0,1.751945E1,3.338612E1,1.6045242E1,2.1148136E1,2.3719413E0,7.826138E0,3.9824918E2,1.423313E2,4.3713248E2,4.067228E2,1.0960581E1,1.5836339E0,2.6837014E3,1.2702264E1,2.1072933E1,1.9906894E2,7.3221855E1,9.418732E0,1.7415437E0,1.628402E1,1.5330881E0,1.4507462E1,3.0119874E0,5.6603303E0,1.03849125E1,1.9040931E0,1.9244043E1,8.9644516E1,3.0860464E2,1.6451268E0,1.4068617E2,2.0395609E2,2.3317639E2,3.9003836E2,1.6684464E1,4.0003595E0,6.9602213E0,1.4114628E0,2.68229E3,1.5498552E1,5.5743814E0,1.852989E2,1.3770038E1,1.8304058E1,5.4917797E1,1.5869929E0,7.831739E0,1.2934537E1,1.5729247E0,1.7153441E0,1.2966434E0,8.554811E0,1.8301018E0,1.3637463E1,7.600705E1,1.7884497E2,1.2975969E2,9.701962E1,4.366655E1,1.8328635E2,2.0669739E1,3.883397E2,1.6986691E0,1.5662816E1,1.0216472E0,1.4412665E0,2.559093E0,1.8387865E0,5.1214347E0,1.4846281E0,2.6808054E3,2.5249305E0,1.2973622E1,2.103437E0,1.1666601E1,4.868277E0,1.3435781E1,5.3095474E1,1.8223245E0,6.7870054E0,1.7678052E0,1.2023898E1,1.6135647E0,6.9739914E1,6.2671413E0,1.53406E2,2.5438955E1,1.06073326E2,2.3686361E1,2.3372707E0,9.468235E1,3.1261436E1,1.5202492E2,1.195905E0,1.9473833E1,1.3062999E2,2.577097E2,2.2242055E0,1.343861E1,1.577785E3,1.1030204E3],"tree_param":{"num_deleted":"0","num_feature":"15","num_nodes":"135","size_leaf_vector":"1"}},{"base_weights":[4.803965E-1,-2.7932765E0,9.333728E-1,-3.2944536E0,-1.0644792E0,3.9290592E-1,1.112925E0,-3.4502523E0,-1.1404521E0,5.816151E-2,-2.3265173E0,-3.320537E-1,9.255108E-1,1.0456276E0,1.1402773E0,-3.6450481E0,-2.2876456E0,-3.0353842E0,5.705545E-1,-3.4517975E0,3.543823E-1,-2.0589311E-1,-2.0272054E-1,-1.4705169E-1,9.423948E-1,1.0809591E0,5.3690964E-1,1.1146914E0,5.8255922E-2,-2.2670202E0,-3.7920191E0,-2.0053594E-1,-5.908955E-1,-1.9165899E-1,-1.5256807E0,-1.13557376E-1,9.1215235E-1,-2.0591687E-1,-1.7128098E0,9.382947E-1,-1.6016375E-1,7.76317E-2,-1.0530571E0,5.282757E-1,1.076523E0,1.0844862E0,-1.8158944E-2,6.618512E-1,-1.3434152E-1,5.6985594E-2,1.0591556E0,-1.9737971E-1,-9.03142E-1,-3.817807E0,-1.6448123E-2,6.8284714E-1,-1.8560155E-1,3.6058393E-1,-1.5262726E-1,5.470239E-2,-1.5270543E-2,-1.9819552E-1,-1.5822235E-1,-2.8070828E-2,5.5809002E-2,-6.967685E-1,5.536909E-1,-2.093668E-1,-7.512744E-1,7.878073E-2,9.797127E-1,9.764751E-1,5.849147E-2,1.0868194E0,-4.2522335E-3,-5.588653E-1,8.494221E-1,1.0667405E0,3.539013E-1,1.18582025E-1,-1.822143E-1,-3.895123E0,-3.248402E0,-1.0033851E0,9.18745E-1,3.2489873E-2,-1.3452315E-3,7.367463E-1,-1.475175E-1,-2.31799E0,-2.0826018E-1,-1.9246401E-1,6.316429E-1,-3.4522462E0,-3.1439188E-1,-2.868457E0,4.32371E-1,1.0715148E0,8.277813E-3,1.0665877E0,3.557867E-1,1.103068E0,8.495437E-1,-1.735904E-1,8.3808357E-1,9.5722985E-1,-5.160719E-1,1.262322E-2,1.0693135E0,4.178606E-2,-2.087862E-2,-1.4386612E-1,3.4506317E-2,-1.974466E-1,-1.4590389E-1,-3.8271636E-2,-2.1160503E-1,-1.1705458E-1,3.2489873E-2,5.519746E-2,-2.5338605E-2,5.151272E-2,-1.6560055E-2,1.764827E-2,-1.6955309E-1,1.1945856E-3,-1.3012885E-1,5.856492E-2,2.0022599E-2,3.848391E-4,-2.3456366E-1,-1.0494123E-1,-1.2368436E-3,-2.3575096E-1,-4.268275E-3,4.5899946E-2,-1.3675372E-2,3.583031E-2,5.6171697E-2,-5.6684077E-2,3.658382E-2,5.4375537E-2,-3.1721514E-2,-2.8291319E-2,4.4832423E-2,1.5092889E-2,5.521197E-2,-3.6974862E-2,4.8966177E-2,1.3909808E-2,4.7150727E-2,4.9742036E-2,-4.569653E-3,-6.0374077E-2,3.2416962E-2,5.0151255E-2,5.7065297E-2],"categories":[],"categories_nodes":[],"categories_segments":[],"categories_sizes":[],"default_left":[0,0,0,0,0,0,0,0,0,0,0,0,0,0,0,0,0,0,0,0,0,0,0,0,0,0,0,0,0,0,0,0,0,0,0,0,0,0,0,0,0,0,0,0,0,0,0,0,0,0,0,0,0,0,0,0,0,0,0,0,0,0,0,0,0,0,0,0,0,0,0,0,0,0,0,0,0,0,0,0,0,0,0,0,0,0,0,0,0,0,0,0,0,0,0,0,0,0,0,0,0,0,0,0,0,0,0,0,0,0,0,0,0,0,0,0,0,0,0,0,0,0,0,0,0,0,0,0,0,0,0,0,0,0,0,0,0,0,0,0,0,0,0,0,0,0,0,0,0,0,0,0,0,0,0,0,0],"id":2,"left_children":[1,3,5,7,9,11,13,15,17,-1,19,21,23,25,27,29,31,33,35,37,39,-1,41,-1,43,45,47,49,-1,51,53,-1,55,-1,57,-1,59,-1,61,63,-1,65,67,69,71,73,-1,75,-1,-1,77,-1,79,81,-1,83,-1,85,-1,-1,-1,-1,87,-1,-1,89,91,-1,93,95,97,99,-1,101,-1,103,105,107,109,111,-1,113,115,117,119,-1,-1,121,-1,123,125,-1,127,129,131,133,135,137,139,141,143,145,147,-1,149,151,153,-1,155,-1,-1,-1,-1,-1,-1,-1,-1,-1,-1,-1,-1,-1,-1,-1,-1,-1,-1,-1,-1,-1,-1,-1,-1,-1,-1,-1,-1,-1,-1,-1,-1,-1,-1,-1,-1,-1,-1,-1,-1,-1,-1,-1,-1,-1,-1,-1,-1],"loss_changes":[6.5580312E3,4.6227734E2,3.7648438E2,1.3576758E2,3.465412E2,3.7489127E2,4.17334E0,7.946875E1,9.761459E1,0E0,2.3774713E2,2.0070038E2,3.9298737E1,1.4776855E1,1.1474609E-2,5.8317383E1,1.6815088E2,1.1243332E1,1.7974411E1,5.7063904E1,5.304184E1,0E0,9.521546E1,0E0,3.0417053E1,4.458435E0,2.4927923E1,2.3620605E-1,0E0,7.5117645E1,2.527295E1,0E0,1.2402604E2,0E0,2.0015316E1,0E0,3.7310133E0,0E0,5.900334E1,6.3527355E0,0E0,1.1136955E2,9.050973E1,2.8015026E1,2.782257E0,2.2651978E0,0E0,1.3327461E1,0E0,0E0,1.4238586E0,0E0,5.7135117E1,3.2470703E-1,0E0,9.890757E0,0E0,4.469556E-1,0E0,0E0,0E0,0E0,2.9962656E1,0E0,0E0,9.063718E1,6.661108E1,0E0,1.06929596E2,7.466453E1,6.1430893E0,1.1306061E1,0E0,2.1269531E0,0E0,3.5787086E1,7.7151604E0,4.2703247E-1,2.2371335E0,2.88981E1,0E0,1.8569336E0,9.754602E1,8.697848E0,5.9194946E0,0E0,0E0,3.2317152E0,0E0,7.726938E1,4.981665E1,0E0,2.256215E1,5.4242798E1,4.124234E1,3.9058292E1,2.2114008E1,3.5617828E-1,6.582378E0,7.1651917E0,1.4458019E1,3.616333E-1,1.2125744E1,0E0,1.0579777E-1,1.8978081E0,4.1957326E0,0E0,4.3637085E-1,0E0,0E0,0E0,0E0,0E0,0E0,0E0,0E0,0E0,0E0,0E0,0E0,0E0,0E0,0E0,0E0,0E0,0E0,0E0,0E0,0E0,0E0,0E0,0E0,0E0,0E0,0E0,0E0,0E0,0E0,0E0,0E0,0E0,0E0,0E0,0E0,0E0,0E0,0E0,0E0,0E0,0E0,0E0,0E0,0E0,0E0,0E0,0E0],"parents":[2147483647,0,0,1,1,2,2,3,3,4,4,5,5,6,6,7,7,8,8,10,10,11,11,12,12,13,13,14,14,15,15,16,16,17,17,18,18,19,19,20,20,22,22,24,24,25,25,26,26,27,27,29,29,30,30,32,32,34,34,36,36,38,38,39,39,41,41,42,42,43,43,44,44,45,45,47,47,50,50,52,52,53,53,55,55,57,57,62,62,65,65,66,66,68,68,69,69,70,70,71,71,73,73,75,75,76,76,77,77,78,78,79,79,81,81,82,82,83,83,84,84,87,87,89,89,90,90,92,92,93,93,94,94,95,95,96,96,97,97,98,98,99,99,100,100,101,101,102,102,104,104,105,105,106,106,108,108],"right_children":[2,4,6,8,10,12,14,16,18,-1,20,22,24,26,28,30,32,34,36,38,40,-1,42,-1,44,46,48,50,-1,52,54,-1,56,-1,58,-1,60,-1,62,64,-1,66,68,70,72,74,-1,76,-1,-1,78,-1,80,82,-1,84,-1,86,-1,-1,-1,-1,88,-1,-1,90,92,-1,94,96,98,100,-1,102,-1,104,106,108,110,112,-1,114,116,118,120,-1,-1,122,-1,124,126,-1,128,130,132,134,136,138,140,142,144,146,148,-1,150,152,154,-1,156,-1,-1,-1,-1,-1,-1,-1,-1,-1,-1,-1,-1,-1,-1,-1,-1,-1,-1,-1,-1,-1,-1,-1,-1,-1,-1,-1,-1,-1,-1,-1,-1,-1,-1,-1,-1,-1,-1,-1,-1,-1,-1,-1,-1,-1,-1,-1,-1],"split_conditions":[4.1673E4,2.1640588E-4,2.2E1,4.4433975E0,1E0,1.65099E5,2.41722E5,1.8615376E2,1.034E4,5.816151E-2,2.2E1,1.3E1,4.348E4,3.6E1,6.0211E5,1.7142857E0,1.3E1,7.581109E0,1.97E3,9.094E4,3.5960414E0,-2.0589311E-1,2E0,-1.4705169E-1,1.796969E6,4E0,5.3231066E-1,3E0,5.8255922E-2,5.91E3,1.34E2,-2.0053594E-1,1.4E1,-1.9165899E-1,9E0,-1.13557376E-1,2.3888889E2,-2.0591687E-1,1.8083838E2,2.5363593E2,-1.6016375E-1,2.1640588E-4,1.9E1,4.825125E0,3.072658E6,2.15E2,-1.8158944E-2,1.03173E5,-1.3434152E-1,5.6985594E-2,3.87E2,-1.9737971E-1,1.5E4,3.3868E5,-1.6448123E-2,3.5587E4,-1.8560155E-1,7.6666665E0,-1.5262726E-1,5.470239E-2,-1.5270543E-2,-1.9819552E-1,2.111923E2,-2.8070828E-2,5.5809002E-2,4.75373E5,2.6853E4,-2.093668E-1,3.0267951E0,7.1952E5,4.02192E5,4.48E2,5.849147E-2,3E0,-4.2522335E-3,1.388889E-1,7.1952E5,3.8368E5,2.6E1,8E3,-1.822143E-1,1.7914E5,1.4263E5,2.6713781E0,9.226E4,3.2489873E-2,-1.3452315E-3,3.7E1,-1.475175E-1,6.7E1,2.73E2,-1.9246401E-1,1E0,1.3704214E-2,7.4473E4,2.0012E5,8.6716E5,1.9E1,5.94162E5,4.11707E6,3.34786E5,1.4854353E-3,2.57E4,-1.735904E-1,3.047E4,7.317982E0,1.840341E6,1.262322E-2,7.9704376E2,4.178606E-2,-2.087862E-2,-1.4386612E-1,3.4506317E-2,-1.974466E-1,-1.4590389E-1,-3.8271636E-2,-2.1160503E-1,-1.1705458E-1,3.2489873E-2,5.519746E-2,-2.5338605E-2,5.151272E-2,-1.6560055E-2,1.764827E-2,-1.6955309E-1,1.1945856E-3,-1.3012885E-1,5.856492E-2,2.0022599E-2,3.848391E-4,-2.3456366E-1,-1.0494123E-1,-1.2368436E-3,-2.3575096E-1,-4.268275E-3,4.5899946E-2,-1.3675372E-2,3.583031E-2,5.6171697E-2,-5.6684077E-2,3.658382E-2,5.4375537E-2,-3.1721514E-2,-2.8291319E-2,4.4832423E-2,1.5092889E-2,5.521197E-2,-3.6974862E-2,4.8966177E-2,1.3909808E-2,4.7150727E-2,4.9742036E-2,-4.569653E-3,-6.0374077E-2,3.2416962E-2,5.0151255E-2,5.7065297E-2],"split_indices":[10,5,1,3,6,10,10,8,13,0,1,1,13,1,10,3,14,3,10,13,3,0,6,0,12,6,5,6,0,13,14,0,1,0,4,0,8,0,8,8,0,5,1,3,13,14,0,10,0,0,14,0,12,12,0,13,0,3,0,0,0,0,8,0,0,13,13,0,3,12,10,14,0,6,0,5,12,12,1,12,0,13,13,3,12,0,0,14,0,14,14,0,6,5,10,13,12,1,10,12,10,5,13,0,13,3,12,0,8,0,0,0,0,0,0,0,0,0,0,0,0,0,0,0,0,0,0,0,0,0,0,0,0,0,0,0,0,0,0,0,0,0,0,0,0,0,0,0,0,0,0,0,0,0,0,0,0],"split_type":[0,0,0,0,0,0,0,0,0,0,0,0,0,0,0,0,0,0,0,0,0,0,0,0,0,0,0,0,0,0,0,0,0,0,0,0,0,0,0,0,0,0,0,0,0,0,0,0,0,0,0,0,0,0,0,0,0,0,0,0,0,0,0,0,0,0,0,0,0,0,0,0,0,0,0,0,0,0,0,0,0,0,0,0,0,0,0,0,0,0,0,0,0,0,0,0,0,0,0,0,0,0,0,0,0,0,0,0,0,0,0,0,0,0,0,0,0,0,0,0,0,0,0,0,0,0,0,0,0,0,0,0,0,0,0,0,0,0,0,0,0,0,0,0,0,0,0,0,0,0,0,0,0,0,0,0,0],"sum_hessian":[4.4196904E3,5.3658777E2,3.8831025E3,4.152899E2,1.2129789E2,9.691305E2,2.913972E3,3.8671692E2,2.8572983E1,4.3894688E1,7.7403206E1,4.1060654E2,5.58524E2,8.5342694E2,2.060545E3,3.2939178E2,5.7325134E1,1.3190515E1,1.5382468E1,5.4316753E1,2.3086449E1,1.2545272E1,3.9806125E2,1.6753085E0,5.5684863E2,7.969522E2,5.647476E1,1.0376522E3,1.0228928E3,3.332788E1,2.960639E2,2.776531E1,2.9559824E1,7.6230974E0,5.5674176E0,1.0445349E0,1.4337933E1,3.8277187E1,1.6039568E1,2.046399E1,2.6224606E0,3.0004608E2,9.8015175E1,1.3744073E2,4.1940793E2,7.9525885E2,1.6933073E0,5.513269E1,1.3420681E0,7.0190216E2,3.3575003E2,1.4081828E1,1.9246054E1,2.9377386E2,2.2900457E0,2.154747E1,8.012354E0,2.8322902E0,2.7351274E0,1.2562612E1,1.7753215E0,5.9189262E0,1.0120641E1,1.9412963E0,1.8522692E1,1.1405328E2,1.8599281E2,7.4776683E0,9.0537506E1,6.945702E1,6.798372E1,2.0792517E2,2.1148274E2,7.937461E2,1.5127733E0,7.0795145E0,4.8053177E1,3.3167038E2,4.0796394E0,1.4717169E1,4.5288844E0,2.5351051E2,4.026333E1,2.2451727E0,1.9302296E1,1.2341787E0,1.5981116E0,8.221511E0,1.8991299E0,2.5541893E1,8.851139E1,2.3939657E0,1.8359885E2,1.16445465E1,7.889296E1,6.678464E0,6.277856E1,6.201973E1,5.9639854E0,1.8093793E2,2.6987251E1,7.3945935E2,5.428675E1,1.813238E0,5.2662764E0,4.481403E1,3.239148E0,1.3569752E0,3.3031342E2,2.4599879E0,1.6196516E0,1.711513E0,1.3005656E1,2.3739471E2,1.6115808E1,1.1929643E1,2.8333687E1,1.0109942E0,1.2341787E0,1.7282518E1,2.019778E0,6.47677E0,1.7447411E0,7.51287E0,1.8029022E1,8.159044E1,6.9209504E0,5.3845066E1,1.2975377E2,3.3324826E0,8.312064E0,1.0145459E1,6.87475E1,3.5974288E0,3.081035E0,3.7013577E1,2.5764982E1,9.803991E0,5.221574E1,2.0929258E0,3.8710597E0,1.7909567E2,1.8422571E0,9.963527E0,1.7023724E1,1.4571358E0,7.380022E2,3.744199E0,5.0542553E1,1.4074864E0,3.85879E0,4.3311855E1,1.5021719E0,2.0091538E0,1.2299939E0,1.7974342E2,1.5056999E2],"tree_param":{"num_deleted":"0","num_feature":"15","num_nodes":"157","size_leaf_vector":"1"}},{"base_weights":[4.753495E-1,-2.2841082E0,9.2887354E-1,-2.7190604E0,-4.9417758E-1,-9.1614276E-1,9.852416E-1,-3.0011313E0,-9.7588456E-1,-3.4670963E0,-1.8423383E-1,-2.6265438E0,-4.8494384E-2,5.697797E-1,1.1033533E0,-3.1318378E0,-2.8062168E-1,5.645118E-2,-2.2805786E0,9.994734E-5,-2.0275147E-1,5.0053295E-2,-2.1573876E-1,-3.2143838E0,7.0252776E-1,6.503299E-1,-2.3415093E0,-5.486674E-1,8.231498E-1,4.7734848E-1,1.1236205E0,-2.4711676E0,-3.2290473E0,4.8071897E-1,-1.4660162E-1,-1.8829134E-1,-9.2205006E-1,4.014027E-1,-1.611209E0,-9.671487E-1,-1.813989E-1,4.704072E-3,4.597128E-2,7.436632E-1,-1.16052605E-1,-1.8857153E-1,7.0421094E-1,7.08471E-1,-1.0140308E0,4.0090033E-1,1.0847338E0,-2.3006165E0,9.0290624E-1,9.823745E-1,1.1352603E0,-1.891233E0,-1.7031667E-1,-3.2768753E0,-1.9909455E0,-1.17359675E-1,9.715973E-1,-1.6190992E-1,5.4881908E-2,-1.3969357E-1,4.9844202E-1,-3.8480884E-1,-2.1088946E-1,-1.3386369E-1,3.3803213E-2,8.474906E-1,-1.06292E0,9.88682E-4,4.701131E-2,8.7092257E-1,-6.770802E-1,-1.5306329E0,5.9134483E-1,4.4990677E-1,-1.8768531E-1,7.6272696E-1,1.1002634E0,-4.6293557E-1,-2.1084361E-1,1.0001814E0,-1.4478478E-1,1.0426826E0,1.750293E-1,1.1359787E0,5.4523426E-1,-1.7184275E-1,-3.850005E-1,-3.134636E0,-3.5304508E0,-1.709155E-1,6.7954946E-1,5.445796E-2,2.06417E-3,6.626167E-1,-9.096807E-1,-1.5262839E-1,3.405299E-1,-2.075466E-2,9.0648484E-1,-1.08690284E-1,1.5644094E-2,1.0117989E0,-3.13347E-1,-1.2934996E-1,3.0253036E-2,-4.1915793E0,-3.9794108E-1,9.3002284E-1,-5.496306E-1,1.6176386E-1,8.397662E-1,-7.177764E-1,1.0657347E0,1.2018435E-2,5.5131096E-2,3.610682E-1,-1.4057532E-1,1.0356244E0,-2.032292E-2,1.077542E0,3.855636E-1,7.5183225E-1,-1.3250811E0,1.1001328E0,5.7516884E-2,4.170209E-2,-3.0753328E-3,-1.308014E-1,-4.148654E-4,-1.6378526E-1,-7.3832974E-2,-1.10554986E-1,-1.8015736E-1,-6.819726E-4,4.6079084E-2,1.2156322E-2,4.5519512E-2,-1.8012497E-1,5.0335612E-2,4.265168E-2,-5.5407744E-2,4.681546E-2,-1.9841506E-3,5.302232E-2,1.834338E-2,3.4727424E-2,-4.6583124E-2,-2.2289705E-1,-6.813419E-2,-7.659171E-3,-1.3511299E-1,-4.2824885E-3,5.234618E-2,4.348251E-2,-8.2309954E-2,2.970925E-2,-5.401289E-2,4.9228344E-2,2.523606E-2,-6.0882296E-2,1.1796392E-2,5.57954E-2,1.1466511E-2,-2.30891E-2,3.6202163E-2,-2.171423E-3,5.295373E-2,5.5484083E-2,2.813082E-2,4.355475E-2,-1.6250307E-2,-2.3035739E-2,4.8495304E-2,3.3528176E-3,-1.6071577E-1,5.513416E-2,-5.769256E-3],"categories":[],"categories_nodes":[],"categories_segments":[],"categories_sizes":[],"default_left":[0,0,0,0,0,0,0,0,0,0,0,0,0,0,0,0,0,0,0,0,0,0,0,0,0,0,0,0,0,0,0,0,0,0,0,0,0,0,0,0,0,0,0,0,0,0,0,0,0,0,0,0,0,0,0,0,0,0,0,0,0,0,0,0,0,0,0,0,0,0,0,0,0,0,0,0,0,0,0,0,0,0,0,0,0,0,0,0,0,0,0,0,0,0,0,0,0,0,0,0,0,0,0,0,0,0,0,0,0,0,0,0,0,0,0,0,0,0,0,0,0,0,0,0,0,0,0,0,0,0,0,0,0,0,0,0,0,0,0,0,0,0,0,0,0,0,0,0,0,0,0,0,0,0,0,0,0,0,0,0,0,0,0,0,0,0,0,0,0,0,0,0,0,0,0,0,0,0,0,0,0],"id":3,"left_children":[1,3,5,7,9,11,13,15,17,19,21,23,25,27,29,31,33,-1,35,-1,-1,37,-1,39,41,43,45,47,49,51,53,55,57,59,-1,-1,61,63,65,67,-1,-1,-1,69,-1,-1,71,73,75,77,79,81,83,85,87,89,-1,91,93,-1,95,-1,-1,-1,97,99,-1,-1,-1,101,103,-1,-1,105,107,109,111,113,-1,115,117,119,-1,121,-1,123,125,127,129,-1,131,133,135,-1,137,-1,-1,139,141,-1,143,-1,145,-1,-1,147,149,-1,-1,151,153,155,157,159,161,163,165,-1,-1,167,-1,169,-1,171,173,175,177,179,-1,-1,-1,-1,-1,-1,-1,-1,-1,-1,-1,-1,-1,-1,-1,-1,-1,-1,-1,-1,-1,-1,-1,-1,-1,-1,-1,-1,-1,-1,-1,-1,-1,-1,-1,-1,-1,-1,-1,-1,-1,-1,-1,-1,-1,-1,-1,-1,-1,-1,-1,-1,-1],"loss_changes":[5.4546304E3,4.7766797E2,3.9012988E2,2.4034863E2,1.1132024E2,1.652966E2,1.7760205E2,1.5038013E2,1.9588956E2,2.3291061E1,1.0772067E2,7.563754E1,1.2166077E2,2.2887631E2,3.53313E1,1.8081055E1,4.2990585E1,0E0,8.487984E1,0E0,0E0,6.2584286E1,0E0,2.6278503E1,7.644501E-1,1.7878765E1,7.986969E1,8.816716E1,7.2198425E1,1.08941124E2,3.3857422E0,2.409549E1,1.4229736E1,2.5688454E1,0E0,0E0,1.1672923E2,2.8799614E1,5.823325E1,1.964019E1,0E0,0E0,0E0,1.1635111E1,0E0,0E0,1.0325336E0,9.812056E0,9.172245E1,5.322705E1,1.1883545E0,4.13267E1,3.212635E1,1.032724E1,4.4970703E-1,8.482251E1,0E0,1.0480957E0,6.1723476E1,0E0,1.6038532E0,0E0,0E0,0E0,2.0630644E1,2.780809E1,0E0,0E0,0E0,4.4486427E0,6.111656E0,0E0,0E0,6.5083733E0,1.3472287E1,2.4887262E2,1.1091738E1,2.8068573E1,0E0,1.0595764E1,5.148926E-1,1.5329944E1,0E0,4.30336E0,0E0,4.1806946E0,1.5017908E1,3.125E-2,9.25884E-1,0E0,1.6674809E1,4.7578125E1,2.850586E0,0E0,1.0632036E0,0E0,0E0,7.9031677E0,5.248367E1,0E0,9.688547E0,0E0,1.5199738E0,0E0,0E0,6.5891266E-1,3.5815625E0,0E0,0E0,1.2547607E1,3.309357E1,2.6406498E0,1.2163706E1,7.884501E1,4.6681824E0,2.3470454E0,5.243683E-1,0E0,0E0,2.2344995E0,0E0,1.9752045E0,0E0,2.5197906E0,4.3075933E0,3.7105207E0,1.3004188E1,2.4314575E0,0E0,0E0,0E0,0E0,0E0,0E0,0E0,0E0,0E0,0E0,0E0,0E0,0E0,0E0,0E0,0E0,0E0,0E0,0E0,0E0,0E0,0E0,0E0,0E0,0E0,0E0,0E0,0E0,0E0,0E0,0E0,0E0,0E0,0E0,0E0,0E0,0E0,0E0,0E0,0E0,0E0,0E0,0E0,0E0,0E0,0E0,0E0,0E0,0E0,0E0,0E0,0E0,0E0],"parents":[2147483647,0,0,1,1,2,2,3,3,4,4,5,5,6,6,7,7,8,8,9,9,10,10,11,11,12,12,13,13,14,14,15,15,16,16,18,18,21,21,23,23,24,24,25,25,26,26,27,27,28,28,29,29,30,30,31,31,32,32,33,33,36,36,37,37,38,38,39,39,43,43,46,46,47,47,48,48,49,49,50,50,51,51,52,52,53,53,54,54,55,55,57,57,58,58,60,60,64,64,65,65,69,69,70,70,73,73,74,74,75,75,76,76,77,77,79,79,80,80,81,81,83,83,85,85,86,86,87,87,88,88,90,90,91,91,92,92,94,94,97,97,98,98,100,100,102,102,105,105,106,106,109,109,110,110,111,111,112,112,113,113,114,114,115,115,116,116,119,119,121,121,123,123,124,124,125,125,126,126,127,127],"right_children":[2,4,6,8,10,12,14,16,18,20,22,24,26,28,30,32,34,-1,36,-1,-1,38,-1,40,42,44,46,48,50,52,54,56,58,60,-1,-1,62,64,66,68,-1,-1,-1,70,-1,-1,72,74,76,78,80,82,84,86,88,90,-1,92,94,-1,96,-1,-1,-1,98,100,-1,-1,-1,102,104,-1,-1,106,108,110,112,114,-1,116,118,120,-1,122,-1,124,126,128,130,-1,132,134,136,-1,138,-1,-1,140,142,-1,144,-1,146,-1,-1,148,150,-1,-1,152,154,156,158,160,162,164,166,-1,-1,168,-1,170,-1,172,174,176,178,180,-1,-1,-1,-1,-1,-1,-1,-1,-1,-1,-1,-1,-1,-1,-1,-1,-1,-1,-1,-1,-1,-1,-1,-1,-1,-1,-1,-1,-1,-1,-1,-1,-1,-1,-1,-1,-1,-1,-1,-1,-1,-1,-1,-1,-1,-1,-1,-1,-1,-1,-1,-1,-1],"split_conditions":[1.6597345E3,6.04648E5,1.9E1,2.1640588E-4,8.154444E-3,1.2E1,2.2E1,5.561563E0,1E0,2.3529413E0,1.2594697E2,2.5343E5,2E0,4.2747E5,3.03E3,1.9666667E0,2.1333334E0,5.645118E-2,4.211987E0,9.994734E-5,-2.0275147E-1,2.6595798E0,-2.1573876E-1,1.388889E-1,1.3197819E0,4.2E1,6.27288E5,2.1E1,1.796969E6,3.10468E-4,4.012345E3,1.608E4,4.0028086E0,1.0526316E0,-1.4660162E-1,-1.8829134E-1,1.8376E5,1.3E3,8.3539E5,1.1E1,-1.813989E-1,4.704072E-3,4.597128E-2,4.433242E3,-1.16052605E-1,-1.8857153E-1,5.142857E0,7.5E-1,3.168966E-1,2.35E2,2E2,2.5E1,3.5E1,3E0,9.333333E0,8E3,-1.7031667E-1,1.1E3,1.1E1,-1.17359675E-1,2E0,-1.6190992E-1,5.4881908E-2,-1.3969357E-1,1.904762E-2,1.6437236E-2,-2.1088946E-1,-1.3386369E-1,3.3803213E-2,2.0109125E2,8.153846E0,9.88682E-4,4.701131E-2,5.3333335E3,1.0006777E0,8.032128E-3,4.636364E3,3.612903E0,-1.8768531E-1,1.630385E-3,2.5E0,4.02015E0,-2.1084361E-1,4.6511628E-2,-1.4478478E-1,4E3,2.7E1,6.5E3,2.4E1,-1.7184275E-1,3.6666668E1,3.2736E5,1.608E4,-1.709155E-1,4.25E0,5.445796E-2,2.06417E-3,2.083079E6,1.158897E2,-1.5262839E-1,1.02E2,-2.075466E-2,3.3E1,-1.08690284E-1,1.5644094E-2,3.6E1,3.5499744E0,-1.2934996E-1,3.0253036E-2,3.6944E5,3.4815211E0,4.685185E0,3.2991406E-1,2E0,5.8E1,1.8821772E-2,3.0487804E0,1.2018435E-2,5.5131096E-2,3.3868E5,-1.4057532E-1,1.8572432E3,-2.032292E-2,3.6E1,5.162969E2,3.3333333E0,3.544303E3,8E0,5.7516884E-2,4.170209E-2,-3.0753328E-3,-1.308014E-1,-4.148654E-4,-1.6378526E-1,-7.3832974E-2,-1.10554986E-1,-1.8015736E-1,-6.819726E-4,4.6079084E-2,1.2156322E-2,4.5519512E-2,-1.8012497E-1,5.0335612E-2,4.265168E-2,-5.5407744E-2,4.681546E-2,-1.9841506E-3,5.302232E-2,1.834338E-2,3.4727424E-2,-4.6583124E-2,-2.2289705E-1,-6.813419E-2,-7.659171E-3,-1.3511299E-1,-4.2824885E-3,5.234618E-2,4.348251E-2,-8.2309954E-2,2.970925E-2,-5.401289E-2,4.9228344E-2,2.523606E-2,-6.0882296E-2,1.1796392E-2,5.57954E-2,1.1466511E-2,-2.30891E-2,3.6202163E-2,-2.171423E-3,5.295373E-2,5.5484083E-2,2.813082E-2,4.355475E-2,-1.6250307E-2,-2.3035739E-2,4.8495304E-2,3.3528176E-3,-1.6071577E-1,5.513416E-2,-5.769256E-3],"split_indices":[9,12,1,5,7,14,1,3,6,3,8,12,6,12,9,3,0,0,3,0,0,3,0,5,5,14,12,1,12,7,9,12,3,0,0,0,12,9,12,1,0,0,0,9,0,0,0,5,5,14,14,1,1,6,0,12,0,9,14,0,2,0,0,0,7,7,0,0,0,8,3,0,0,9,5,7,9,3,0,5,3,0,0,7,0,9,1,9,1,0,8,12,12,0,3,0,0,12,8,0,14,0,14,0,0,14,3,0,0,12,3,0,5,6,14,7,3,0,0,12,0,9,0,1,8,3,9,0,0,0,0,0,0,0,0,0,0,0,0,0,0,0,0,0,0,0,0,0,0,0,0,0,0,0,0,0,0,0,0,0,0,0,0,0,0,0,0,0,0,0,0,0,0,0,0,0,0,0,0,0,0],"split_type":[0,0,0,0,0,0,0,0,0,0,0,0,0,0,0,0,0,0,0,0,0,0,0,0,0,0,0,0,0,0,0,0,0,0,0,0,0,0,0,0,0,0,0,0,0,0,0,0,0,0,0,0,0,0,0,0,0,0,0,0,0,0,0,0,0,0,0,0,0,0,0,0,0,0,0,0,0,0,0,0,0,0,0,0,0,0,0,0,0,0,0,0,0,0,0,0,0,0,0,0,0,0,0,0,0,0,0,0,0,0,0,0,0,0,0,0,0,0,0,0,0,0,0,0,0,0,0,0,0,0,0,0,0,0,0,0,0,0,0,0,0,0,0,0,0,0,0,0,0,0,0,0,0,0,0,0,0,0,0,0,0,0,0,0,0,0,0,0,0,0,0,0,0,0,0,0,0,0,0,0,0],"sum_hessian":[4.3558467E3,6.1427386E2,3.741573E3,4.9376913E2,1.20504715E2,1.1046968E2,3.6311033E3,4.2437717E2,6.9391975E1,1.04154625E1,1.1008926E2,3.6496563E1,7.3973114E1,8.0506903E2,2.8260342E3,4.0477847E2,1.959871E1,2.660456E1,4.2787415E1,1.6538043E0,8.761658E0,1.05114944E2,4.9743094E0,3.104853E1,5.448032E0,5.7243767E1,1.672935E1,1.4847833E2,6.565907E2,8.9395256E1,2.736639E3,5.5307785E1,3.4947067E2,1.5862544E1,3.736165E0,1.9593884E1,2.3193533E1,8.73906E1,1.772434E1,5.345035E0,2.5703495E1,1.8085129E0,3.6395192E0,5.622735E1,1.0164181E0,1.1222348E1,5.5070004E0,3.9972836E1,1.0850549E2,2.5213176E2,4.0445898E2,1.1290005E1,7.810525E1,2.1485205E2,2.5217869E3,3.600312E1,1.9304665E1,3.348872E2,1.4583462E1,1.7868751E0,1.4075669E1,1.0522812E1,1.267072E1,1.7566652E0,8.563394E1,1.2833695E1,4.890645E0,2.310823E0,3.0342124E0,5.3673527E1,2.553821E0,1.6899564E0,3.8170443E0,3.6110424E1,3.8624094E0,8.212472E1,2.6380775E1,2.5007367E2,2.0580807E0,2.0914207E1,3.8354477E2,6.396945E0,4.8930597E0,7.687337E1,1.2318866E0,1.9964705E2,1.5205E1,2.517796E3,3.9910283E0,1.7136612E1,1.886651E1,2.2310284E2,1.1178438E2,9.321267E0,5.2621937E0,1.2344923E1,1.7307462E0,7.716644E1,8.467495E0,2.0575733E0,1.0776122E1,2.1264963E0,5.154703E1,1.0920343E0,1.4617869E0,3.240168E1,3.7087462E0,1.1426148E0,2.7197945E0,2.3714201E1,5.8410515E1,2.0485046E1,5.895729E0,1.4460895E2,1.0546472E2,3.3206413E0,1.7593567E1,1.3306458E0,3.822141E2,5.3619485E0,1.0349967E0,7.524128E1,1.6320858E0,1.8898201E2,1.0665036E1,1.1342532E1,3.8624675E0,7.423067E2,1.7754891E3,2.45014E0,1.5408882E0,1.8666614E0,1.6999847E1,2.047094E2,1.839344E1,7.47827E0,1.0430611E2,1.6060513E0,3.6561427E0,2.9389725E1,4.7776722E1,3.1547568E0,5.312738E0,8.263793E0,2.512329E0,4.998196E1,1.5650703E0,2.952994E1,2.8717394E0,1.363256E0,2.3454902E0,2.1147177E1,2.567024E0,5.376612E1,4.644396E0,2.1419966E0,1.834305E1,2.6599326E0,3.2357967E0,1.076509E2,3.6958042E1,7.228555E1,3.3179173E1,1.9971247E0,1.3235166E0,1.6282652E1,1.3109156E0,1.5579418E0,3.8040066E0,1.5822656E0,7.365901E1,1.7679228E2,1.2189729E1,6.2015886E0,4.4634476E0,1.5593708E0,9.783162E0,2.7791073E0,1.0833603E0,7.408451E2,1.4616212E0],"tree_param":{"num_deleted":"0","num_feature":"15","num_nodes":"181","size_leaf_vector":"1"}},{"base_weights":[4.6157187E-1,-2.193555E0,9.1038924E-1,-2.585696E0,-8.346041E-1,3.9048368E-1,1.0918916E0,-2.6592786E0,-7.0685744E-1,5.7238825E-2,-1.8023735E0,-2.3996055E-1,8.844074E-1,1.0949886E0,-4.3160346E-1,-2.8048275E0,-2.067781E0,3.3047244E-1,-1.4246914E-1,-2.771752E0,4.3457425E-1,-1.5665343E-1,-1.329354E-1,3.878245E-1,1.0501828E0,1.0960561E0,-2.2353237E-2,-1.2775911E-1,4.541676E-2,-2.835846E0,1.5315343E-1,-1.5629981E-1,-1.3504248E0,-1.12502836E-1,9.1029626E-1,-1.5167455E-1,-1.6271324E0,8.3000326E-1,-1.3272354E-1,1.3179074E-1,-8.443565E-1,-2.1272233E0,4.8342547E-1,9.4431514E-1,5.7312787E-2,9.809257E-1,1.112795E0,-1.9711035E0,-2.9220326E0,3.7782382E-2,-1.8583367E-2,-4.9368177E-2,-2.7587922E0,5.2577373E-2,2.0004523E-3,-1.5539388E-1,-5.389656E-1,-9.9622214E-1,1.0714527E0,-5.197109E-1,5.600846E-1,-3.2086763E0,-5.5199254E-1,3.5099722E-2,-1.6857429E-1,-1.030847E-1,5.2217597E-1,1.0418596E0,4.4183367E-1,1.0193969E0,3.529061E-1,1.114375E0,3.3800545E-1,-2.444028E0,1.397607E-1,-2.986228E0,-2.2388968E0,2.754305E-1,-1.3202752E-1,4.906136E-2,-1.5491594E-1,4.9454668E-1,-1.2736145E-1,3.3418044E-2,-1.0958872E-1,1.3385564E-2,5.5378653E-2,-2.3225684E0,-4.363355E-2,6.0926E-1,-1.3705952E-1,1.8468E-2,-1.9033103E-1,-1.5675813E-1,-2.7762347E-1,-4.6598777E-1,5.976774E-1,1.0590564E0,-1.888459E-2,-1.4796095E-1,6.6140234E-1,1.0349594E0,1.2749605E-1,-1.2179785E-1,6.7608786E-1,1.1040653E-2,1.1147741E0,-3.297894E-2,4.4724073E-2,-8.992817E-2,-1.6558234E-1,4.936221E-2,-1.0033417E-1,-1.5412724E-1,-1.2242712E-1,9.458429E-3,-1.501703E-1,-1.0128832E-1,2.6140193E-2,-9.82886E-3,3.9168254E-2,6.3099014E-3,-1.9296561E-1,-7.5556256E-2,1.4779988E-2,4.889814E-2,2.1428054E-2,-1.7411117E-1,-4.2596827E-3,4.4744086E-2,-1.7611885E-1,-2.208641E-2,3.4162335E-2,1.0200341E-2,5.322778E-2,-1.5802648E-2,4.7855645E-2,4.4607814E-2,5.4906663E-2,3.6142353E-2,-4.3567427E-2,-1.0105034E-2,4.8200514E-2,5.469629E-2,5.7089068E-2],"categories":[],"categories_nodes":[],"categories_segments":[],"categories_sizes":[],"default_left":[0,0,0,0,0,0,0,0,0,0,0,0,0,0,0,0,0,0,0,0,0,0,0,0,0,0,0,0,0,0,0,0,0,0,0,0,0,0,0,0,0,0,0,0,0,0,0,0,0,0,0,0,0,0,0,0,0,0,0,0,0,0,0,0,0,0,0,0,0,0,0,0,0,0,0,0,0,0,0,0,0,0,0,0,0,0,0,0,0,0,0,0,0,0,0,0,0,0,0,0,0,0,0,0,0,0,0,0,0,0,0,0,0,0,0,0,0,0,0,0,0,0,0,0,0,0,0,0,0,0,0,0,0,0,0,0,0,0,0,0,0,0,0,0,0],"id":4,"left_children":[1,3,5,7,9,11,13,15,17,-1,19,21,23,25,27,29,31,33,-1,35,37,-1,39,41,43,45,-1,-1,-1,47,49,-1,51,-1,53,-1,55,57,-1,59,61,63,65,67,-1,69,71,73,75,-1,-1,77,79,-1,-1,-1,81,83,85,87,89,91,93,-1,-1,-1,95,97,99,101,103,105,107,109,111,113,115,117,-1,-1,-1,119,-1,-1,-1,-1,-1,121,123,125,-1,-1,-1,-1,127,129,131,133,-1,-1,135,137,139,-1,141,-1,143,-1,-1,-1,-1,-1,-1,-1,-1,-1,-1,-1,-1,-1,-1,-1,-1,-1,-1,-1,-1,-1,-1,-1,-1,-1,-1,-1,-1,-1,-1,-1,-1,-1,-1,-1,-1,-1,-1],"loss_changes":[5.076001E3,3.2609155E2,3.433357E2,6.41416E1,2.691283E2,2.9423856E2,1.3210693E1,3.373291E1,4.3969204E1,0E0,2.0509174E2,1.2826154E2,4.319458E1,4.925049E0,1.9946188E1,3.398877E1,6.750357E1,2.290661E1,0E0,1.4757233E1,3.7982307E1,0E0,7.578269E1,3.3282993E1,2.9504395E0,4.0981445E0,0E0,0E0,0E0,2.1217041E1,1.7808812E0,0E0,1.0627312E2,0E0,1.444727E0,0E0,2.1512611E1,1.2853281E1,0E0,8.224278E1,7.364382E1,2.031185E1,1.3902721E1,9.063797E0,0E0,8.102905E0,2.4926758E0,3.61588E1,7.658203E0,0E0,0E0,2.6989206E1,3.842772E1,0E0,0E0,0E0,2.0987385E1,8.707686E0,4.0284348E-1,1.0033002E2,3.0515896E1,2.664869E1,6.880043E1,0E0,0E0,0E0,9.895287E0,4.354416E0,2.6843447E1,4.4418945E0,2.124827E1,5.876465E-1,4.034693E0,1.0489227E1,1.5647845E1,7.781006E0,6.014035E1,1.7359188E1,0E0,0E0,0E0,1.5737505E0,0E0,0E0,0E0,0E0,0E0,9.240161E1,4.703632E1,1.1299812E1,0E0,0E0,0E0,0E0,5.517855E1,4.3545044E1,1.0991333E1,5.366211E-1,0E0,0E0,9.587086E0,1.9407959E0,4.6685762E0,0E0,5.320586E0,0E0,6.689453E-2,0E0,0E0,0E0,0E0,0E0,0E0,0E0,0E0,0E0,0E0,0E0,0E0,0E0,0E0,0E0,0E0,0E0,0E0,0E0,0E0,0E0,0E0,0E0,0E0,0E0,0E0,0E0,0E0,0E0,0E0,0E0,0E0,0E0,0E0,0E0,0E0,0E0,0E0],"parents":[2147483647,0,0,1,1,2,2,3,3,4,4,5,5,6,6,7,7,8,8,10,10,11,11,12,12,13,13,14,14,15,15,16,16,17,17,19,19,20,20,22,22,23,23,24,24,25,25,29,29,30,30,32,32,34,34,36,36,37,37,39,39,40,40,41,41,42,42,43,43,45,45,46,46,47,47,48,48,51,51,52,52,56,56,57,57,58,58,59,59,60,60,61,61,62,62,66,66,67,67,68,68,69,69,70,70,71,71,72,72,73,73,74,74,75,75,76,76,77,77,81,81,87,87,88,88,89,89,94,94,95,95,96,96,97,97,100,100,101,101,102,102,104,104,106,106],"right_children":[2,4,6,8,10,12,14,16,18,-1,20,22,24,26,28,30,32,34,-1,36,38,-1,40,42,44,46,-1,-1,-1,48,50,-1,52,-1,54,-1,56,58,-1,60,62,64,66,68,-1,70,72,74,76,-1,-1,78,80,-1,-1,-1,82,84,86,88,90,92,94,-1,-1,-1,96,98,100,102,104,106,108,110,112,114,116,118,-1,-1,-1,120,-1,-1,-1,-1,-1,122,124,126,-1,-1,-1,-1,128,130,132,134,-1,-1,136,138,140,-1,142,-1,144,-1,-1,-1,-1,-1,-1,-1,-1,-1,-1,-1,-1,-1,-1,-1,-1,-1,-1,-1,-1,-1,-1,-1,-1,-1,-1,-1,-1,-1,-1,-1,-1,-1,-1,-1,-1,-1,-1],"split_conditions":[4.3272E4,2.1640588E-4,2.2E1,5.7835135E0,1E0,1.65099E5,9.333333E0,1.5797987E2,2.1182914E0,5.7238825E-2,2.2E1,1.3E1,1.796969E6,6.122449E-2,1.4792587E3,1.36E2,1.1E1,1.0526316E0,-1.4246914E-1,1.913771E-2,4.685185E0,-1.5665343E-1,2E0,2.5384614E0,5.39026E6,1.4517E5,-2.2353237E-2,-1.2775911E-1,4.541676E-2,1.7142857E0,1.38E2,-1.5629981E-1,1.4E1,-1.12502836E-1,9E0,-1.5167455E-1,2.9029298E0,2.7228656E2,-1.3272354E-1,3.75E2,2.6E0,2E0,2.76559E5,4.48E2,5.7312787E-2,3.6E1,8.466666E0,3.29E3,3.846154E-2,3.7782382E-2,-1.8583367E-2,1.0474E5,3.1769232E2,5.2577373E-2,2.0004523E-3,-1.5539388E-1,8.1765533E2,3.2177122E0,2.345E4,1.14657795E-2,1.2943389E3,1.2128297E-2,1.9E1,3.5099722E-2,-1.6857429E-1,-1.030847E-1,3.1645145E0,4.11707E6,2.5714285E0,3E0,2.454263E2,2.565362E0,4.0781196E-2,8.25E1,2E0,3.2736E5,4.0781196E-2,5.2E3,-1.3202752E-1,4.906136E-2,-1.5491594E-1,6.224845E2,-1.2736145E-1,3.3418044E-2,-1.0958872E-1,1.3385564E-2,5.5378653E-2,2.4530387E0,5.729E4,2.1E1,-1.3705952E-1,1.8468E-2,-1.9033103E-1,-1.5675813E-1,2.9285715E0,1.9833333E2,1.8E1,2.506329E0,-1.888459E-2,-1.4796095E-1,1.43407015E-2,4.341078E2,9.273E4,-1.2179785E-1,1.03173E5,1.1040653E-2,5.81656E5,-3.297894E-2,4.4724073E-2,-8.992817E-2,-1.6558234E-1,4.936221E-2,-1.0033417E-1,-1.5412724E-1,-1.2242712E-1,9.458429E-3,-1.501703E-1,-1.0128832E-1,2.6140193E-2,-9.82886E-3,3.9168254E-2,6.3099014E-3,-1.9296561E-1,-7.5556256E-2,1.4779988E-2,4.889814E-2,2.1428054E-2,-1.7411117E-1,-4.2596827E-3,4.4744086E-2,-1.7611885E-1,-2.208641E-2,3.4162335E-2,1.0200341E-2,5.322778E-2,-1.5802648E-2,4.7855645E-2,4.4607814E-2,5.4906663E-2,3.6142353E-2,-4.3567427E-2,-1.0105034E-2,4.8200514E-2,5.469629E-2,5.7089068E-2],"split_indices":[10,5,1,3,6,10,0,8,0,0,1,1,12,7,8,14,14,0,0,7,0,0,6,0,12,10,0,0,0,3,14,0,1,0,3,0,3,8,0,11,0,6,12,14,0,1,0,10,7,0,0,12,11,0,0,0,11,3,10,7,8,5,1,0,0,0,3,12,3,6,8,3,7,11,1,12,7,10,0,0,0,11,0,0,0,0,0,3,10,1,0,0,0,0,3,8,1,3,0,0,7,8,10,0,10,0,10,0,0,0,0,0,0,0,0,0,0,0,0,0,0,0,0,0,0,0,0,0,0,0,0,0,0,0,0,0,0,0,0,0,0,0,0,0,0],"split_type":[0,0,0,0,0,0,0,0,0,0,0,0,0,0,0,0,0,0,0,0,0,0,0,0,0,0,0,0,0,0,0,0,0,0,0,0,0,0,0,0,0,0,0,0,0,0,0,0,0,0,0,0,0,0,0,0,0,0,0,0,0,0,0,0,0,0,0,0,0,0,0,0,0,0,0,0,0,0,0,0,0,0,0,0,0,0,0,0,0,0,0,0,0,0,0,0,0,0,0,0,0,0,0,0,0,0,0,0,0,0,0,0,0,0,0,0,0,0,0,0,0,0,0,0,0,0,0,0,0,0,0,0,0,0,0,0,0,0,0,0,0,0,0,0,0],"sum_hessian":[4.256904E3,6.149684E2,3.6419355E3,4.765514E2,1.38417E2,9.4323413E2,2.6987014E3,4.5819144E2,1.8359936E1,4.539258E1,9.302442E1,4.1457928E2,5.2865485E2,2.6935073E3,5.194145E0,3.6470673E2,9.348471E1,1.2940426E1,5.4195104E0,6.473326E1,2.8291159E1,1.3780843E1,4.0079846E2,1.3314783E2,3.95507E2,2.691933E3,1.5742472E0,1.6586008E0,3.5355444E0,3.6096283E2,3.7439108E0,3.6412613E1,5.7072098E1,1.8456591E0,1.1094767E1,5.1342594E1,1.3390668E1,2.5728907E1,2.5622528E0,2.9269775E2,1.081007E2,4.097617E0,1.290502E2,1.9331377E2,2.0219324E2,3.4926743E2,2.3426658E3,3.487897E1,3.2608386E2,1.5382171E0,2.2056937E0,3.0204285E1,2.6867811E1,9.366302E0,1.7284652E0,4.8859477E0,8.50472E0,2.6394181E0,2.3089487E1,1.1601199E2,1.7668576E2,1.079859E1,9.730211E1,1.3847567E0,2.7128603E0,1.1524639E0,1.2789774E2,1.6098839E2,3.2325382E1,3.285198E2,2.0747633E1,2.3374604E3,5.205216E0,2.836595E1,6.5130234E0,2.9499155E2,3.10923E1,2.7634117E1,2.5701678E0,2.0788186E0,2.4788992E1,6.112691E0,2.3920293E0,1.2876152E0,1.3518031E0,1.3547825E0,2.1734705E1,2.3425062E1,9.258693E1,1.7489598E2,1.7897846E0,1.6009508E0,9.197639E0,8.341406E0,8.89607E1,8.711365E0,1.1918638E2,1.593124E2,1.6759956E0,1.2036586E0,3.1121725E1,3.2272818E2,5.791619E0,1.4757115E0,1.9271921E1,1.290832E0,2.3361697E3,1.7975332E0,3.407683E0,1.8027441E1,1.0338509E1,5.056582E0,1.4564413E0,2.4616292E2,4.8828632E1,7.6257215E0,2.346658E1,1.9844664E0,2.564965E1,1.8957225E0,4.2169685E0,9.386216E0,1.4038846E1,1.673563E1,7.58513E1,5.607237E1,1.1882361E2,4.0708795E0,8.4889824E1,6.5168986E0,2.1944659E0,8.749116E0,1.10437256E2,1.2615052E0,1.5805089E2,7.212478E0,2.3909246E1,1.0361976E2,2.1910841E2,3.80187E0,1.9897486E0,4.831993E0,1.4439928E1,1.3418401E3,9.943296E2],"tree_param":{"num_deleted":"0","num_feature":"15","num_nodes":"145","size_leaf_vector":"1"}},{"base_weights":[4.4948313E-1,-1.9158522E0,8.932944E-1,-2.244985E0,-1.17903076E-1,3.3555695E-1,1.0825787E0,-2.41448E0,-1.0189693E0,2.3275039E-1,-2.132249E0,-7.7761203E-1,7.423457E-1,3.8834277E-1,1.1048894E0,-2.47543E0,-4.0895808E-1,5.518051E-2,-2.0473576E0,3.3734068E-1,-1.5238886E-1,3.9295305E-2,-1.928832E-1,-2.323455E0,-4.0541002E-1,2.963762E-1,1.0486871E0,6.297622E-1,-1.693208E-1,9.457261E-1,1.1182696E0,-2.3772154E0,-1.5342474E-1,3.103221E-1,-1.2067634E-1,-1.3770804E-1,-6.5292555E-1,-1.4294882E-1,7.8951794E-1,-1.2660235E-1,4.375724E-2,-2.7667017E0,-1.0404028E0,2.83105E-1,-1.0486982E0,-1.2934637E0,4.0205938E-1,3.4047496E-1,1.0615609E0,7.7818E-1,-1.4926362E-1,1.0177057E0,9.579211E-2,4.6244818E-1,5.599233E-2,-2.4686704E0,-9.259205E-1,-9.5083125E-2,7.9394835E-1,-1.3930224E-1,5.183269E-1,4.3550852E-1,-1.9321261E-1,9.6123916E-1,-2.7992353E-1,-4.4191572E-1,-1.4705154E-1,-1.4962037E-1,1.325751E-1,4.3799233E-1,-2.1246274E0,-1.3963691E0,4.7918192E-1,-1.8735509E-1,-1.0648308E-2,5.7010632E-2,2.7214888E-1,4.9679577E-2,-1.0037843E0,9.755986E-1,5.7095554E-2,1.0442104E0,8.252136E-2,1.0606798E0,1.6819417E-1,4.6126148E-1,-1.4197321E-1,4.6969347E-2,-2.9802138E-2,-2.548752E0,-1.3250026E0,5.210495E-1,-2.367615E0,9.129898E-1,3.0111536E-1,8.9021456E-1,-8.660788E-2,7.369483E-1,-1.3060079E0,5.609438E-2,6.905143E-1,-1.5980513E0,4.438553E-2,-7.553983E-2,3.5126552E-2,8.111237E-1,-1.17509544E-1,-6.530877E-1,7.7829653E-1,3.2841083E-2,-1.5108141E-1,-2.7772086E0,-3.989042E-1,8.700914E-1,-7.8974634E-1,4.7920695E-1,-1.2665488E0,-5.3405327E-1,6.282328E-1,3.1761467E-2,-1.1353623E-1,1.0536261E0,2.8081864E-1,5.4759033E-2,-1.9448528E-2,-1.4797413E-1,3.9579532E-1,1.1007662E0,4.5534763E-1,5.9321773E-1,-6.545664E-1,-2.4666833E-2,5.955365E-1,-9.7632304E-2,-1.3304508E-1,4.1039716E-3,-1.353946E-1,-1.0267843E-1,4.9279936E-2,-1.4070588E-1,3.6360767E-2,1.2596584E-2,5.0105024E-2,-4.4457917E-3,3.0651128E-2,-5.437299E-4,5.222292E-2,4.7336124E-2,-3.326307E-2,-1.5926804E-1,4.271592E-2,-1.2789361E-1,5.4338604E-2,1.4168623E-2,-1.4647932E-1,5.074622E-2,1.1443467E-3,5.0649054E-5,-9.9430926E-2,4.9699172E-2,6.630391E-3,1.8071E-2,-1.4676683E-1,3.5525912E-3,-1.9027722E-1,5.178553E-2,7.070566E-3,1.9259626E-2,-1.2827735E-1,4.1135423E-2,-2.7783126E-2,-1.2803055E-1,3.3085275E-2,-1.7694044E-1,-3.0979665E-3,-1.1450297E-1,3.3452667E-2,3.9800756E-2,5.4685522E-2,-3.7029844E-2,3.979067E-2,-2.1653965E-3,5.1006425E-2,5.5323254E-2,8.799784E-3,5.1087003E-2,-2.1514094E-2,-6.9823624E-3,3.974843E-2,3.0742606E-2,-6.918747E-2,-2.451537E-2,3.8052574E-2],"categories":[],"categories_nodes":[],"categories_segments":[],"categories_sizes":[],"default_left":[0,0,0,0,0,0,0,0,0,0,0,0,0,0,0,0,0,0,0,0,0,0,0,0,0,0,0,0,0,0,0,0,0,0,0,0,0,0,0,0,0,0,0,0,0,0,0,0,0,0,0,0,0,0,0,0,0,0,0,0,0,0,0,0,0,0,0,0,0,0,0,0,0,0,0,0,0,0,0,0,0,0,0,0,0,0,0,0,0,0,0,0,0,0,0,0,0,0,0,0,0,0,0,0,0,0,0,0,0,0,0,0,0,0,0,0,0,0,0,0,0,0,0,0,0,0,0,0,0,0,0,0,0,0,0,0,0,0,0,0,0,0,0,0,0,0,0,0,0,0,0,0,0,0,0,0,0,0,0,0,0,0,0,0,0,0,0,0,0,0,0,0,0,0,0,0,0,0,0,0,0,0,0,0,0,0,0,0,0,0,0,0,0],"id":5,"left_children":[1,3,5,7,9,11,13,15,17,19,21,23,25,27,29,31,33,-1,35,37,-1,39,-1,41,43,45,47,49,-1,51,53,55,-1,57,-1,-1,59,61,63,-1,-1,65,67,69,71,73,75,77,79,81,-1,83,85,87,-1,89,91,-1,93,-1,95,97,-1,99,101,103,-1,-1,105,107,109,111,113,-1,115,-1,117,-1,119,121,-1,123,125,127,129,131,-1,-1,-1,133,135,137,139,141,143,145,-1,147,149,-1,151,153,-1,-1,-1,155,-1,157,159,-1,-1,161,163,165,167,169,171,173,175,-1,-1,177,179,-1,-1,-1,181,183,185,187,189,-1,191,-1,-1,-1,-1,-1,-1,-1,-1,-1,-1,-1,-1,-1,-1,-1,-1,-1,-1,-1,-1,-1,-1,-1,-1,-1,-1,-1,-1,-1,-1,-1,-1,-1,-1,-1,-1,-1,-1,-1,-1,-1,-1,-1,-1,-1,-1,-1,-1,-1,-1,-1,-1,-1,-1,-1,-1,-1,-1,-1,-1],"loss_changes":[4.3777935E3,3.8965625E2,3.7026758E2,1.13265625E2,7.32575E1,4.0405096E2,4.0162598E1,5.87041E1,1.5368234E2,3.1441597E1,5.774682E1,1.3654308E2,8.8910034E1,7.78996E1,4.348633E0,2.0310303E1,2.3251846E1,0E0,4.4602936E1,1.8964132E1,0E0,1.8971321E1,0E0,2.3371964E1,8.613103E1,4.5435257E1,3.1646423E0,4.470243E1,0E0,1.2342316E1,1.8986816E0,5.2269287E1,0E0,1.4744803E1,0E0,0E0,4.428492E1,9.411439E1,8.507914E0,0E0,0E0,1.2359711E1,3.1202385E1,3.6132683E1,5.400167E1,5.3152313E1,2.379953E1,8.351818E0,1.5061951E0,1.410199E1,0E0,6.6615143E0,1.952474E1,4.249275E0,0E0,3.1981201E1,5.5401382E1,0E0,3.6207247E-1,0E0,1.1511803E1,2.0943134E1,0E0,9.163246E-1,1.2163689E1,5.376951E0,0E0,0E0,1.7677767E1,3.37462E1,1.6645535E1,1.11895325E2,1.02882805E1,0E0,8.051174E0,0E0,6.208805E1,0E0,8.163233E0,1.001239E1,0E0,4.4708786E0,2.2416712E1,3.8216095E0,3.9586484E0,2.3395276E0,0E0,0E0,0E0,1.8852295E1,5.3434296E1,1.850418E1,2.0269165E1,2.33706E-1,4.9300566E-1,1.5240412E0,0E0,1.0361525E1,2.6986721E1,0E0,2.4765892E1,9.940271E0,0E0,0E0,0E0,1.2772951E0,0E0,1.9068714E1,9.43465E0,0E0,0E0,1.8055328E1,7.840203E1,1.6967382E0,1.1593018E1,3.8094957E0,1.0851612E1,9.403108E1,1.9361408E1,0E0,0E0,8.908844E-1,1.140541E1,0E0,0E0,0E0,5.827067E0,6.821289E-1,6.8453298E0,1.1839771E0,4.5099983E0,0E0,2.969243E0,0E0,0E0,0E0,0E0,0E0,0E0,0E0,0E0,0E0,0E0,0E0,0E0,0E0,0E0,0E0,0E0,0E0,0E0,0E0,0E0,0E0,0E0,0E0,0E0,0E0,0E0,0E0,0E0,0E0,0E0,0E0,0E0,0E0,0E0,0E0,0E0,0E0,0E0,0E0,0E0,0E0,0E0,0E0,0E0,0E0,0E0,0E0,0E0,0E0,0E0,0E0,0E0,0E0,0E0,0E0,0E0,0E0,0E0,0E0,0E0],"parents":[2147483647,0,0,1,1,2,2,3,3,4,4,5,5,6,6,7,7,8,8,9,9,10,10,11,11,12,12,13,13,14,14,15,15,16,16,18,18,19,19,21,21,23,23,24,24,25,25,26,26,27,27,29,29,30,30,31,31,33,33,36,36,37,37,38,38,41,41,42,42,43,43,44,44,45,45,46,46,47,47,48,48,49,49,51,51,52,52,53,53,55,55,56,56,58,58,60,60,61,61,63,63,64,64,65,65,68,68,69,69,70,70,71,71,72,72,74,74,76,76,78,78,79,79,81,81,82,82,83,83,84,84,85,85,89,89,90,90,91,91,92,92,93,93,94,94,95,95,97,97,98,98,100,100,101,101,105,105,107,107,108,108,111,111,112,112,113,113,114,114,115,115,116,116,117,117,118,118,121,121,122,122,126,126,127,127,128,128,129,129,130,130,132,132],"right_children":[2,4,6,8,10,12,14,16,18,20,22,24,26,28,30,32,34,-1,36,38,-1,40,-1,42,44,46,48,50,-1,52,54,56,-1,58,-1,-1,60,62,64,-1,-1,66,68,70,72,74,76,78,80,82,-1,84,86,88,-1,90,92,-1,94,-1,96,98,-1,100,102,104,-1,-1,106,108,110,112,114,-1,116,-1,118,-1,120,122,-1,124,126,128,130,132,-1,-1,-1,134,136,138,140,142,144,146,-1,148,150,-1,152,154,-1,-1,-1,156,-1,158,160,-1,-1,162,164,166,168,170,172,174,176,-1,-1,178,180,-1,-1,-1,182,184,186,188,190,-1,192,-1,-1,-1,-1,-1,-1,-1,-1,-1,-1,-1,-1,-1,-1,-1,-1,-1,-1,-1,-1,-1,-1,-1,-1,-1,-1,-1,-1,-1,-1,-1,-1,-1,-1,-1,-1,-1,-1,-1,-1,-1,-1,-1,-1,-1,-1,-1,-1,-1,-1,-1,-1,-1,-1,-1,-1,-1,-1,-1,-1],"split_conditions":[1.6597345E3,4.75373E5,2.2E1,2.1640588E-4,2.6595798E0,3.8368E5,3.03E3,5.561563E0,1E0,1.2594697E2,8.24778E5,2.402E4,8.6881E5,4.9863843E3,4.012345E3,5.2E1,2.3888889E2,5.518051E-2,1.5108806E3,1.11161E6,-1.5238886E-1,7.81352E5,-1.928832E-1,1.9E1,2.1E1,2.1640588E-4,1.715587E6,3.4E1,-1.693208E-1,3E0,1.24E4,3.2736E5,-1.5342474E-1,4E3,-1.2067634E-1,-1.3770804E-1,3.2530048E0,1.63E2,3.216729E6,-1.2660235E-1,4.375724E-2,2.4738115E3,8.227019E3,3.3E1,2.8E-1,2.6296296E0,1E0,9.205E5,3.072658E6,8.7696336E-2,-1.4926362E-1,4E3,3.4E1,3E0,5.599233E-2,1.3744E5,2.1333333E2,-9.5083125E-2,1.406E4,-1.3930224E-1,2E0,2.597896E0,-1.9321261E-1,2.6E2,5.39026E6,4.148148E0,-1.4705154E-1,-1.4962037E-1,1.4792587E3,3.884E4,2.4530387E0,1.1987E5,2.1E1,-1.8735509E-1,1.4059993E2,5.7010632E-2,3.251558E2,4.9679577E-2,2.556997E0,4.48E2,5.7095554E-2,3.3333333E0,2.7652628E2,3.6E1,4.0655E5,3.3333333E3,-1.4197321E-1,4.6969347E-2,-2.9802138E-2,1.9666667E0,2.4225352E0,1.9714285E2,3.2666667E0,6.8950257E0,1.089695E2,3.7837E4,-8.660788E-2,1.04759E6,1.158897E2,5.609438E-2,1.574487E6,1.0414773E2,4.438553E-2,-7.553983E-2,3.5126552E-2,2E0,-1.17509544E-1,2E0,2E0,3.2841083E-2,-1.5108141E-1,2.93E4,3.2666667E0,4.5E0,3.7176924E3,5.3506E5,4.7866666E2,2.81812E5,3.1645145E0,3.1761467E-2,-1.1353623E-1,2.1640588E-4,4.3572984E-3,5.4759033E-2,-1.9448528E-2,-1.4797413E-1,5.12505E5,8.0969305E0,3.04E0,4.211987E0,2.734375E0,-2.4666833E-2,3.3333333E0,-9.7632304E-2,-1.3304508E-1,4.1039716E-3,-1.353946E-1,-1.0267843E-1,4.9279936E-2,-1.4070588E-1,3.6360767E-2,1.2596584E-2,5.0105024E-2,-4.4457917E-3,3.0651128E-2,-5.437299E-4,5.222292E-2,4.7336124E-2,-3.326307E-2,-1.5926804E-1,4.271592E-2,-1.2789361E-1,5.4338604E-2,1.4168623E-2,-1.4647932E-1,5.074622E-2,1.1443467E-3,5.0649054E-5,-9.9430926E-2,4.9699172E-2,6.630391E-3,1.8071E-2,-1.4676683E-1,3.5525912E-3,-1.9027722E-1,5.178553E-2,7.070566E-3,1.9259626E-2,-1.2827735E-1,4.1135423E-2,-2.7783126E-2,-1.2803055E-1,3.3085275E-2,-1.7694044E-1,-3.0979665E-3,-1.1450297E-1,3.3452667E-2,3.9800756E-2,5.4685522E-2,-3.7029844E-2,3.979067E-2,-2.1653965E-3,5.1006425E-2,5.5323254E-2,8.799784E-3,5.1087003E-2,-2.1514094E-2,-6.9823624E-3,3.974843E-2,3.0742606E-2,-6.918747E-2,-2.451537E-2,3.8052574E-2],"split_indices":[9,13,1,5,3,12,9,3,6,8,12,13,13,11,9,14,8,0,9,13,0,12,0,1,1,5,12,1,0,6,13,12,0,12,0,0,3,14,12,0,0,11,11,14,5,3,6,12,13,5,0,9,1,6,0,13,11,0,12,0,6,3,0,14,12,3,0,0,8,13,3,13,14,0,8,0,8,0,3,14,0,3,8,1,12,9,0,0,0,3,3,11,3,3,8,13,0,12,8,0,13,8,0,0,0,2,0,6,6,0,0,13,3,3,11,13,11,13,3,0,0,5,5,0,0,0,12,3,3,3,3,0,3,0,0,0,0,0,0,0,0,0,0,0,0,0,0,0,0,0,0,0,0,0,0,0,0,0,0,0,0,0,0,0,0,0,0,0,0,0,0,0,0,0,0,0,0,0,0,0,0,0,0,0,0,0,0,0,0,0,0,0,0],"split_type":[0,0,0,0,0,0,0,0,0,0,0,0,0,0,0,0,0,0,0,0,0,0,0,0,0,0,0,0,0,0,0,0,0,0,0,0,0,0,0,0,0,0,0,0,0,0,0,0,0,0,0,0,0,0,0,0,0,0,0,0,0,0,0,0,0,0,0,0,0,0,0,0,0,0,0,0,0,0,0,0,0,0,0,0,0,0,0,0,0,0,0,0,0,0,0,0,0,0,0,0,0,0,0,0,0,0,0,0,0,0,0,0,0,0,0,0,0,0,0,0,0,0,0,0,0,0,0,0,0,0,0,0,0,0,0,0,0,0,0,0,0,0,0,0,0,0,0,0,0,0,0,0,0,0,0,0,0,0,0,0,0,0,0,0,0,0,0,0,0,0,0,0,0,0,0,0,0,0,0,0,0,0,0,0,0,0,0,0,0,0,0,0,0],"sum_hessian":[4.1676396E3,6.5791284E2,3.509727E3,5.559009E2,1.02011986E2,8.900155E2,2.6197114E3,4.8753107E2,6.836979E1,8.7640205E1,1.4371784E1,2.3795232E2,6.520632E2,8.2141624E1,2.5375698E3,4.729241E2,1.4606982E1,2.2290125E1,4.6079666E1,8.580183E1,1.8383788E0,6.7959166E0,7.5758677E0,4.5158E1,1.9279431E2,2.6632166E2,3.8574152E2,7.798703E1,4.1545935E0,2.0233824E2,2.3352317E3,4.1002954E2,6.289455E1,1.1371757E1,3.235226E0,2.9932505E1,1.6147161E1,4.1939148E1,4.3862675E1,1.1693399E0,5.6265764E0,3.2703735E1,1.2454265E1,9.339404E1,9.940026E1,1.5899482E1,2.5042218E2,7.376786E0,3.7836472E2,7.5665276E1,2.321754E0,1.8635844E2,1.597979E1,6.3080463E0,2.3289236E3,3.850634E2,2.496617E1,1.5141814E0,9.857575E0,5.234765E0,1.0912396E1,3.7061153E1,4.8779955E0,3.788123E1,5.9814467E0,2.5278761E0,3.017586E1,4.0925503E0,8.361714E0,8.851786E1,4.8761888E0,8.1044556E1,1.8355705E1,4.7991533E0,1.11003275E1,3.6313187E1,2.1410898E2,5.140235E0,2.2365513E0,1.8914761E2,1.8921712E2,5.4371685E1,2.1293592E1,1.7714848E2,9.20996E0,1.4959975E1,1.0198147E0,4.426197E0,1.8818495E0,3.587168E2,2.6346577E1,1.2778997E1,1.2187173E1,7.2530913E0,2.6044843E0,9.88359E0,1.0288074E0,3.2084473E1,4.97668E0,2.1800669E1,1.608056E1,2.6365051E0,3.3449416E0,1.1415708E0,1.3863055E0,7.095726E0,1.2659885E0,2.0826147E1,6.769171E1,1.2543666E0,3.621822E0,3.32419E1,4.7802658E1,1.4273027E1,4.0826774E0,8.430504E0,2.6698241E0,6.54424E1,1.4866658E2,1.1924784E0,1.0440729E0,1.6958574E2,1.9561876E1,5.2732132E1,1.6395506E0,1.1994592E0,2.0094131E1,1.6537833E2,1.1770166E1,6.2567987E0,2.9531608E0,1.5150423E0,1.3444933E1,5.9716713E1,2.990001E2,1.3525305E1,1.2821272E1,1.430475E0,1.1348522E1,1.0729842E1,1.4573306E0,1.3161974E0,5.936894E0,1.4749851E0,1.1294992E0,1.5804037E0,8.303185E0,2.8191751E1,3.892722E0,2.407671E0,2.569009E0,1.155238E0,1.4925322E1,1.4188672E0,1.217638E0,5.409498E0,1.6862276E0,1.4650189E1,6.1759567E0,5.0337482E1,1.7354227E1,1.5327749E0,3.1709126E1,4.286803E1,4.9346275E0,1.1286424E1,2.9866037E0,2.9282925E0,1.1543847E0,6.483474E0,1.9470298E0,1.4013965E0,1.2684276E0,8.003868E0,5.743853E1,1.2907305E0,1.4737585E2,2.5643093E1,1.4394264E2,6.4101777E0,1.3151699E1,1.2343435E1,7.750697E0,1.6417014E2,1.2081878E0,7.0852203E0,4.6849456E0,1.417072E0,4.839727E0,1.1346561E0,1.8185047E0,1.5187858E0,1.19261465E1],"tree_param":{"num_deleted":"0","num_feature":"15","num_nodes":"193","size_leaf_vector":"1"}},{"base_weights":[4.407561E-1,-1.8064446E0,8.7454236E-1,-2.023108E0,-6.210817E-1,3.2470933E-1,1.06971E0,-2.1070392E0,-1.1357964E0,-2.3844192E0,-1.1296955E-1,-3.285289E-1,8.3695143E-1,-2.2491064E0,1.0765245E0,-2.2553604E0,-1.4982384E0,-4.4076994E-1,-1.2704262E-1,-1.2948482E-1,-1.1648015E0,-1.5296451E0,2.731288E-1,-2.4725808E-1,-1.684063E-1,3.4268633E-1,1.0099959E0,3.200821E-2,-1.6102393E-1,6.0573596E-1,1.0971159E0,-2.363435E0,-1.4603966E0,-1.2381426E-1,-7.8342247E-1,-1.239254E-1,2.6784614E-1,3.4577463E-2,-1.00814916E-1,-1.3875163E-1,5.1645875E-2,4.1928723E-1,-1.6358336E0,-1.300153E-1,-1.6338915E-1,-1.7375835E0,4.6876535E-1,5.947008E-1,1.0507272E0,7.367822E-1,-1.4377816E-1,1.0990186E0,2.0720819E-1,-1.6116472E0,-2.4483159E0,-1.275194E-1,1.4643054E-1,-8.538811E-2,-1.8171023E0,6.200004E-1,-1.0178657E-1,5.0750875E-1,-8.7505236E-2,-1.20618716E-1,2.9125858E-2,3.866445E-2,-7.176897E-1,-2.2590249E0,-7.884797E-3,-9.412475E-1,5.53993E-1,7.733365E-1,-1.16939306E-1,9.534755E-1,5.6659896E-2,-2.5093743E-1,9.285425E-1,9.513308E-1,1.1095399E0,-4.0709052E-2,4.4119604E-2,-1.3350503E-1,-5.372805E-1,-2.4654632E0,-1.0384683E-3,9.329391E-1,-1.1153766E-1,1.9477904E-1,-1.1050741E-1,-2.3053746E0,-1.2653749E-1,8.589632E-1,-2.1271409E-1,1.4032735E-1,9.262861E-1,-5.010915E-1,3.3637363E-1,-2.3945553E0,-9.4886914E-2,-1.5097122E-1,-2.6451452E-2,-1.7178546E-1,4.809921E-2,2.3268001E-1,8.420666E-1,9.043293E-1,-4.8534807E-2,5.3355683E-2,8.733299E-2,-1.2380834E0,6.306716E-1,9.8073286E-1,-4.6178706E-2,1.014353E0,2.6575318E-2,6.038203E-1,5.5516988E-2,7.892948E-4,-1.1803108E-1,-1.275457E-1,-1.0152755E-1,5.4452837E-2,-1.383879E-2,1.8171614E-2,-8.6970486E-2,2.038009E-2,-1.2936638E-1,4.635006E-2,-9.175041E-2,1.0481646E-2,5.404059E-2,-8.8292554E-2,4.3945964E-2,4.1325465E-2,-8.645487E-2,-6.69498E-3,5.330795E-2,7.227083E-3,-1.1729715E-1,2.1960564E-2,-9.6012145E-2,1.1803223E-2,-1.3827088E-1,-9.081919E-2,1.8295053E-2,-1.7274769E-1,2.5282605E-2,-3.8331877E-2,4.620087E-2,5.3617634E-2,4.0118336E-3,-8.8306986E-2,3.7574135E-2,2.6803955E-2,-1.0029131E-1,4.4473555E-2,-2.4672175E-2,5.0629236E-2,-2.022928E-2,5.235157E-2,1.743888E-2,4.2170163E-2,-4.7347378E-2,4.4359863E-2,-8.388151E-3],"categories":[],"categories_nodes":[],"categories_segments":[],"categories_sizes":[],"default_left":[0,0,0,0,0,0,0,0,0,0,0,0,0,0,0,0,0,0,0,0,0,0,0,0,0,0,0,0,0,0,0,0,0,0,0,0,0,0,0,0,0,0,0,0,0,0,0,0,0,0,0,0,0,0,0,0,0,0,0,0,0,0,0,0,0,0,0,0,0,0,0,0,0,0,0,0,0,0,0,0,0,0,0,0,0,0,0,0,0,0,0,0,0,0,0,0,0,0,0,0,0,0,0,0,0,0,0,0,0,0,0,0,0,0,0,0,0,0,0,0,0,0,0,0,0,0,0,0,0,0,0,0,0,0,0,0,0,0,0,0,0,0,0,0,0,0,0,0,0,0,0,0,0,0,0,0,0,0,0,0,0,0,0,0,0],"id":6,"left_children":[1,3,5,7,9,11,13,15,17,19,21,23,25,27,29,31,33,35,-1,-1,37,39,41,43,-1,45,47,-1,-1,49,51,53,55,-1,57,-1,59,-1,-1,-1,-1,61,63,-1,65,67,69,71,73,75,-1,77,79,81,83,-1,85,87,89,91,-1,93,-1,-1,-1,95,97,99,-1,101,103,105,-1,107,-1,109,111,113,115,-1,-1,-1,117,119,-1,121,-1,123,-1,125,127,129,131,133,135,137,139,141,143,-1,-1,-1,-1,145,147,149,-1,-1,151,153,155,157,-1,159,161,163,-1,-1,-1,-1,-1,-1,-1,-1,-1,-1,-1,-1,-1,-1,-1,-1,-1,-1,-1,-1,-1,-1,-1,-1,-1,-1,-1,-1,-1,-1,-1,-1,-1,-1,-1,-1,-1,-1,-1,-1,-1,-1,-1,-1,-1,-1,-1,-1,-1],"loss_changes":[3.9471216E3,1.6701953E2,3.6378662E2,3.8829346E1,9.174509E1,2.982099E2,5.905005E1,4.2178223E1,4.771026E1,2.7225647E0,4.4599518E1,9.601543E1,4.236139E1,1.7369917E1,2.3565918E1,3.123291E1,6.924097E1,5.0717903E1,0E0,0E0,9.487268E0,5.8558907E1,1.8632875E1,7.5143394E1,0E0,3.5172394E1,5.622528E0,0E0,0E0,5.0921173E1,3.8249512E0,1.862915E1,8.9577324E1,0E0,4.3343754E1,0E0,2.285873E1,0E0,0E0,0E0,0E0,1.247571E1,9.637159E0,0E0,4.1557663E1,5.985655E0,1.5458782E1,2.030256E1,1.6066895E0,1.9910107E1,0E0,2.6552734E0,5.089909E0,4.2706528E1,1.3100708E1,0E0,4.2337646E1,2.247676E1,1.9726624E1,4.930337E0,0E0,8.935245E0,0E0,0E0,0E0,4.398858E1,1.03278275E2,5.9177876E0,0E0,3.8700333E1,1.07119255E1,8.649372E0,0E0,1.5659744E1,0E0,1.616517E1,9.335854E0,9.637726E0,2.290039E-1,0E0,0E0,0E0,2.0725647E1,6.479492E0,0E0,3.4900246E0,0E0,1.1605508E1,0E0,1.5403572E1,1.3387566E1,2.4725895E0,1.1930888E1,4.323539E1,4.2005234E0,1.1628393E2,4.1769413E1,2.679863E1,5.8817024E1,0E0,0E0,0E0,0E0,5.9214924E1,8.849728E0,4.366892E0,0E0,0E0,2.551844E1,1.2894343E1,3.3482392E0,4.173805E0,0E0,3.0109253E0,1.0028774E1,1.3958197E0,0E0,0E0,0E0,0E0,0E0,0E0,0E0,0E0,0E0,0E0,0E0,0E0,0E0,0E0,0E0,0E0,0E0,0E0,0E0,0E0,0E0,0E0,0E0,0E0,0E0,0E0,0E0,0E0,0E0,0E0,0E0,0E0,0E0,0E0,0E0,0E0,0E0,0E0,0E0,0E0,0E0,0E0,0E0,0E0,0E0,0E0,0E0,0E0,0E0],"parents":[2147483647,0,0,1,1,2,2,3,3,4,4,5,5,6,6,7,7,8,8,9,9,10,10,11,11,12,12,13,13,14,14,15,15,16,16,17,17,20,20,21,21,22,22,23,23,25,25,26,26,29,29,30,30,31,31,32,32,34,34,36,36,41,41,42,42,44,44,45,45,46,46,47,47,48,48,49,49,51,51,52,52,53,53,54,54,56,56,57,57,58,58,59,59,61,61,65,65,66,66,67,67,69,69,70,70,71,71,73,73,75,75,76,76,77,77,78,78,82,82,83,83,85,85,87,87,89,89,90,90,91,91,92,92,93,93,94,94,95,95,96,96,97,97,98,98,103,103,104,104,105,105,108,108,109,109,110,110,111,111,113,113,114,114,115,115],"right_children":[2,4,6,8,10,12,14,16,18,20,22,24,26,28,30,32,34,36,-1,-1,38,40,42,44,-1,46,48,-1,-1,50,52,54,56,-1,58,-1,60,-1,-1,-1,-1,62,64,-1,66,68,70,72,74,76,-1,78,80,82,84,-1,86,88,90,92,-1,94,-1,-1,-1,96,98,100,-1,102,104,106,-1,108,-1,110,112,114,116,-1,-1,-1,118,120,-1,122,-1,124,-1,126,128,130,132,134,136,138,140,142,144,-1,-1,-1,-1,146,148,150,-1,-1,152,154,156,158,-1,160,162,164,-1,-1,-1,-1,-1,-1,-1,-1,-1,-1,-1,-1,-1,-1,-1,-1,-1,-1,-1,-1,-1,-1,-1,-1,-1,-1,-1,-1,-1,-1,-1,-1,-1,-1,-1,-1,-1,-1,-1,-1,-1,-1,-1,-1,-1,-1,-1,-1,-1],"split_conditions":[4.3272E4,1.6852467E3,2.2E1,4.280994E0,2.797E4,1.5738E5,1.8572432E3,1.5797987E2,3.678349E2,3.889372E3,1.8083838E2,7.09424E3,1.796969E6,9.891748E1,3.2857144E3,3.6363635E-2,1.3E1,1.2307693E0,-1.2704262E-1,-1.2948482E-1,5.7410126E2,3.42618E5,3.7E1,1.3E1,-1.684063E-1,2.6550808E0,1.6597345E3,3.200821E-2,-1.6102393E-1,5.883333E0,9.333333E0,1.7142857E0,1.2635E5,-1.2381426E-1,1.65E3,-1.239254E-1,4.410138E0,3.4577463E-2,-1.00814916E-1,-1.3875163E-1,5.1645875E-2,3.9275124E0,2.2E1,-1.300153E-1,1.08E2,7.5150747E3,3.7182E3,2.6176472E0,3.072658E6,3.10468E-4,-1.4377816E-1,4.012345E3,6.5571055E3,6.46E3,1.34E2,-1.275194E-1,2.597896E0,3.2788973E0,3.2056074E0,2.1182914E0,-1.0178657E-1,1.4672222E3,-8.7505236E-2,-1.20618716E-1,2.9125858E-2,3.10468E-4,9E4,2.568E0,-7.884797E-3,4.98227E5,4.903226E0,1.16816025E2,-1.16939306E-1,4.48E2,5.6659896E-2,3.03E3,3.5E1,4E3,1.24E4,-4.0709052E-2,4.4119604E-2,-1.3350503E-1,1.5E4,3.2736E5,-1.0384683E-3,2.0511E5,-1.1153766E-1,2.361302E-2,-1.1050741E-1,1.9666667E0,3.2833333E0,5.060606E0,3.5625E0,2.1428572E3,8.125E4,6.168E4,8.5243E5,2.3625E2,1.1521137E-2,-1.5097122E-1,-2.6451452E-2,-1.7178546E-1,4.809921E-2,1.95665E5,4.348E4,3.216729E6,-4.8534807E-2,5.3355683E-2,3.4756E5,4.9993E4,2.8E1,4.6511628E-2,-4.6178706E-2,3.6E1,1.39575E5,6.9617276E0,5.5516988E-2,7.892948E-4,-1.1803108E-1,-1.275457E-1,-1.0152755E-1,5.4452837E-2,-1.383879E-2,1.8171614E-2,-8.6970486E-2,2.038009E-2,-1.2936638E-1,4.635006E-2,-9.175041E-2,1.0481646E-2,5.404059E-2,-8.8292554E-2,4.3945964E-2,4.1325465E-2,-8.645487E-2,-6.69498E-3,5.330795E-2,7.227083E-3,-1.1729715E-1,2.1960564E-2,-9.6012145E-2,1.1803223E-2,-1.3827088E-1,-9.081919E-2,1.8295053E-2,-1.7274769E-1,2.5282605E-2,-3.8331877E-2,4.620087E-2,5.3617634E-2,4.0118336E-3,-8.8306986E-2,3.7574135E-2,2.6803955E-2,-1.0029131E-1,4.4473555E-2,-2.4672175E-2,5.0629236E-2,-2.022928E-2,5.235157E-2,1.743888E-2,4.2170163E-2,-4.7347378E-2,4.4359863E-2,-8.388151E-3],"split_indices":[10,9,1,3,13,10,9,8,8,9,8,9,12,8,9,7,14,0,0,0,8,13,14,1,0,0,9,0,0,0,0,3,13,0,9,0,0,0,0,0,0,3,1,0,14,9,9,3,13,7,0,9,9,13,14,0,3,0,3,0,0,11,0,0,0,7,10,0,0,13,3,8,0,14,0,9,1,9,13,0,0,0,12,12,0,12,0,7,0,3,3,3,0,9,12,13,12,11,7,0,0,0,0,10,13,12,0,0,10,10,1,7,0,1,10,0,0,0,0,0,0,0,0,0,0,0,0,0,0,0,0,0,0,0,0,0,0,0,0,0,0,0,0,0,0,0,0,0,0,0,0,0,0,0,0,0,0,0,0,0,0,0,0,0,0],"split_type":[0,0,0,0,0,0,0,0,0,0,0,0,0,0,0,0,0,0,0,0,0,0,0,0,0,0,0,0,0,0,0,0,0,0,0,0,0,0,0,0,0,0,0,0,0,0,0,0,0,0,0,0,0,0,0,0,0,0,0,0,0,0,0,0,0,0,0,0,0,0,0,0,0,0,0,0,0,0,0,0,0,0,0,0,0,0,0,0,0,0,0,0,0,0,0,0,0,0,0,0,0,0,0,0,0,0,0,0,0,0,0,0,0,0,0,0,0,0,0,0,0,0,0,0,0,0,0,0,0,0,0,0,0,0,0,0,0,0,0,0,0,0,0,0,0,0,0,0,0,0,0,0,0,0,0,0,0,0,0,0,0,0,0,0,0],"sum_hessian":[4.0465203E3,6.542188E2,3.3923015E3,5.5252106E2,1.0169777E2,8.8937823E2,2.502923E3,5.0351834E2,4.900271E1,2.1923254E1,7.977451E1,3.9104968E2,4.9832855E2,4.4544706E0,2.4984688E3,4.0270374E2,1.0081458E2,3.3664093E1,1.5338614E1,1.7803358E1,4.1198955E0,1.6450907E1,6.332361E1,3.819195E2,9.130175E0,1.2999774E2,3.683308E2,1.2065753E0,3.2478952E0,1.0597352E2,2.392495E3,3.5277164E2,4.99321E1,4.152871E1,5.9285873E1,8.04158E0,2.5622515E1,1.3545908E0,2.7653046E0,1.1014853E1,5.4360533E0,5.954495E1,3.7786605E0,1.2111512E1,3.6980798E2,6.6981616E0,1.23299576E2,3.429196E1,3.3403885E2,1.0288884E2,3.0846753E0,2.3871562E3,5.3389215E0,3.7816727E1,3.1495493E2,2.9400827E1,2.053127E1,3.603463E1,2.3251244E1,2.2858868E1,2.7636456E0,5.7954216E1,1.5907338E0,2.7341127E0,1.0445478E0,2.7169867E2,9.810932E1,4.712829E0,1.9853324E0,6.4554915E0,1.16844086E2,3.301771E1,1.2742492E0,1.5904727E2,1.749916E2,1.6677534E1,8.621131E1,1.648314E2,2.222325E3,2.042798E0,3.296123E0,1.830126E1,1.9515467E1,3.1273032E2,2.224615E0,1.5883607E1,4.647663E0,3.263921E1,3.3954203E0,1.775852E1,5.492723E0,1.77373E1,5.121567E0,3.1590738E1,2.6363478E1,9.634289E1,1.7535577E2,2.579981E1,7.230952E1,2.7560878E0,1.9567416E0,2.4453316E0,4.01016E0,5.6089924E1,6.0754158E1,3.1158867E1,1.8588436E0,1.4039532E2,1.8651945E1,7.6770844E0,9.000449E0,8.4306145E1,1.9051639E0,1.5422412E2,1.060728E1,4.703118E0,2.2176218E3,1.5734216E1,3.7812514E0,2.5730933E2,5.5420982E1,1.4156417E1,1.7271906E0,3.076843E1,1.8707783E0,1.6298937E0,1.6128628E1,3.6805184E0,1.8122045E0,5.012147E0,1.2725155E1,1.8590105E0,3.2625566E0,2.3516695E1,8.074043E0,3.0777733E0,2.3285704E1,7.204968E1,2.4293203E1,1.684831E2,6.872678E0,3.2327278E0,2.2567083E1,1.4646923E1,5.766259E1,3.0624106E0,5.3027515E1,2.5399437E0,5.8214214E1,2.5631613E1,5.527255E0,4.4826794E0,1.4169267E1,2.4098814E0,5.2672033E0,7.485773E0,1.5146763E0,8.2674324E1,1.6318213E0,1.4646011E2,7.7640157E0,5.8405027E0,4.766777E0,3.3302045E0,1.3729134E0],"tree_param":{"num_deleted":"0","num_feature":"15","num_nodes":"165","size_leaf_vector":"1"}},{"base_weights":[4.171549E-1,-1.8101656E0,8.591477E-1,-1.977862E0,-7.7291024E-1,2.9345155E-1,1.0252683E0,-2.0273793E0,-1.000239E0,-1.2236644E-1,-2.0668586E-1,-2.7799484E-1,6.0578793E-1,-1.06465854E-1,1.0278165E0,-2.2727292E0,-1.8506179E0,4.1098896E-1,-1.1576325E-1,-1.7560432E0,2.6347473E-1,2.4468007E-2,-1.906196E0,6.433712E-1,-1.615255E-1,9.196944E-1,1.084446E0,-2.3084779E0,-1.168145E0,6.252254E-2,-1.9175845E0,-9.655168E-2,9.951379E-1,4.5812264E-2,-1.2817432E-1,5.9741414E-1,-4.899871E-1,-6.2846357E-1,4.6499416E-1,-1.7047428E-1,-1.0690315E0,7.129787E-1,-9.842042E-1,9.283082E-1,-1.4158879E-1,1.0861119E0,2.2986533E-1,-1.677639E0,-1.1912125E-1,3.5399195E-2,-1.1240467E-1,6.8113285E-1,-9.541699E-2,-1.7424848E0,-2.3694394E0,5.325986E-2,9.717929E-3,-8.374039E-2,7.2538364E-1,7.136988E-1,-2.0168974E0,-1.1484617E0,5.819377E-1,5.77861E-1,-1.5139954E-1,-2.018155E0,2.4849457E-1,-1.8356705E0,7.448825E-1,-1.4419019E0,3.2128426E-1,9.3474E-1,-1.17269315E-1,1.0901548E0,8.162347E-1,-2.7503703E-2,3.846919E-2,-1.2406112E-1,-1.2689615E-2,4.599053E-2,-1.0723996E-2,-2.2787936E0,-1.4999559E0,-1.2164458E-1,-2.0339317E-3,-4.0667054E-1,8.8724476E-1,5.2225273E-2,-2.466715E-2,-1.2901866E-1,1.50771085E-2,-2.6377878E0,-5.480891E-1,-9.208102E-2,7.648917E-1,8.048018E-1,1.8496774E-1,-7.826415E-1,-1.4131509E-1,8.9619535E-1,-1.2732117E-1,3.4069043E-2,-1.3485096E-1,-6.1597085E-1,7.694515E-1,-1.3777427E-1,-7.4611175E-1,4.3925084E-2,-3.2309588E-2,7.5936264E-1,9.8286116E-1,4.7688684E-1,1.0912167E0,2.2288941E-1,5.3947803E-2,3.4543276E-2,-9.6831165E-2,-1.19718984E-1,-6.401585E-2,-8.731357E-2,1.7460091E-2,4.1985925E-2,-8.9715414E-2,4.9644355E-2,-2.768968E-2,-1.4785971E-1,3.5145402E-2,2.6255114E-2,-6.813979E-2,4.4379365E-2,-2.563485E-2,-2.2611777E-4,4.525752E-2,-5.360926E-2,3.2527596E-2,-1.3452327E-1,3.8487118E-2,4.7523975E-2,1.5562451E-2,3.9733868E-2,-1.0516957E-1,2.5984904E-2,4.4988263E-2,-5.965789E-2,3.907622E-2,-1.4454438E-1,4.1444805E-2,-1.9910777E-2,4.9333658E-2,3.8906083E-2,-4.917602E-3,5.2474577E-2,5.5657763E-2,-7.333364E-2,3.7723783E-2],"categories":[],"categories_nodes":[],"categories_segments":[],"categories_sizes":[],"default_left":[0,0,0,0,0,0,0,0,0,0,0,0,0,0,0,0,0,0,0,0,0,0,0,0,0,0,0,0,0,0,0,0,0,0,0,0,0,0,0,0,0,0,0,0,0,0,0,0,0,0,0,0,0,0,0,0,0,0,0,0,0,0,0,0,0,0,0,0,0,0,0,0,0,0,0,0,0,0,0,0,0,0,0,0,0,0,0,0,0,0,0,0,0,0,0,0,0,0,0,0,0,0,0,0,0,0,0,0,0,0,0,0,0,0,0,0,0,0,0,0,0,0,0,0,0,0,0,0,0,0,0,0,0,0,0,0,0,0,0,0,0,0,0,0,0,0,0,0,0,0,0,0,0,0,0],"id":7,"left_children":[1,3,5,7,9,11,13,15,17,-1,19,21,23,-1,25,27,29,31,-1,33,35,37,39,41,-1,43,45,47,49,51,53,-1,55,-1,-1,57,59,61,63,-1,65,67,69,71,-1,73,75,77,-1,-1,-1,79,-1,81,83,-1,-1,-1,85,87,89,91,93,95,-1,97,99,101,103,105,107,109,-1,111,113,-1,-1,-1,115,-1,-1,117,119,-1,-1,121,123,-1,-1,-1,-1,125,127,-1,129,131,133,135,-1,137,-1,-1,-1,139,141,-1,143,-1,-1,145,147,149,151,153,-1,-1,-1,-1,-1,-1,-1,-1,-1,-1,-1,-1,-1,-1,-1,-1,-1,-1,-1,-1,-1,-1,-1,-1,-1,-1,-1,-1,-1,-1,-1,-1,-1,-1,-1,-1,-1,-1,-1,-1,-1],"loss_changes":[3.8817756E3,1.1205005E2,3.0882666E2,2.5151367E1,8.7208305E1,1.3369394E2,2.2625732E1,1.8927002E1,5.484498E1,0E0,5.1620686E1,1.3058795E2,7.186722E1,0E0,1.4561279E1,5.9504395E0,4.0530884E1,2.2247528E1,0E0,3.7908756E1,1.4068043E1,6.487586E1,4.863315E1,5.510144E1,0E0,3.1065186E1,2.1165771E0,5.850464E0,1.9602524E1,1.5486327E1,1.9985962E1,0E0,4.9711514E-1,0E0,0E0,1.2376559E1,3.335054E1,5.7871597E1,5.4834484E1,0E0,3.5688103E1,3.8856964E1,1.2481621E1,2.0694702E1,0E0,9.197998E-1,2.3176918E0,3.4123848E1,0E0,0E0,0E0,2.2479386E0,0E0,2.5645325E1,1.2068573E1,0E0,0E0,0E0,7.147337E0,4.6869793E0,1.1118195E1,5.569877E1,1.3812819E1,1.1556091E1,0E0,1.4228302E1,2.522323E1,1.4821829E1,1.572261E1,1.1722094E1,3.823286E0,6.661194E0,0E0,5.418701E-1,4.1957016E0,0E0,0E0,0E0,1.3947319E1,0E0,0E0,4.742462E0,7.202377E1,0E0,0E0,1.0705827E1,5.530716E0,0E0,0E0,0E0,0E0,2.1390915E1,4.164361E1,0E0,4.6432467E0,6.7378044E0,2.9589823E1,2.545054E1,0E0,5.434513E-2,0E0,0E0,0E0,1.9807217E1,1.4127106E1,0E0,8.599049E0,0E0,0E0,5.1478867E1,4.0010376E0,8.728764E-1,3.2141113E-1,1.0082656E1,0E0,0E0,0E0,0E0,0E0,0E0,0E0,0E0,0E0,0E0,0E0,0E0,0E0,0E0,0E0,0E0,0E0,0E0,0E0,0E0,0E0,0E0,0E0,0E0,0E0,0E0,0E0,0E0,0E0,0E0,0E0,0E0,0E0,0E0,0E0,0E0,0E0,0E0,0E0,0E0,0E0],"parents":[2147483647,0,0,1,1,2,2,3,3,4,4,5,5,6,6,7,7,8,8,10,10,11,11,12,12,14,14,15,15,16,16,17,17,19,19,20,20,21,21,22,22,23,23,25,25,26,26,27,27,28,28,29,29,30,30,32,32,35,35,36,36,37,37,38,38,40,40,41,41,42,42,43,43,45,45,46,46,47,47,51,51,53,53,54,54,58,58,59,59,60,60,61,61,62,62,63,63,65,65,66,66,67,67,68,68,69,69,70,70,71,71,73,73,74,74,78,78,81,81,82,82,85,85,86,86,91,91,92,92,94,94,95,95,96,96,97,97,99,99,103,103,104,104,106,106,109,109,110,110,111,111,112,112,113,113],"right_children":[2,4,6,8,10,12,14,16,18,-1,20,22,24,-1,26,28,30,32,-1,34,36,38,40,42,-1,44,46,48,50,52,54,-1,56,-1,-1,58,60,62,64,-1,66,68,70,72,-1,74,76,78,-1,-1,-1,80,-1,82,84,-1,-1,-1,86,88,90,92,94,96,-1,98,100,102,104,106,108,110,-1,112,114,-1,-1,-1,116,-1,-1,118,120,-1,-1,122,124,-1,-1,-1,-1,126,128,-1,130,132,134,136,-1,138,-1,-1,-1,140,142,-1,144,-1,-1,146,148,150,152,154,-1,-1,-1,-1,-1,-1,-1,-1,-1,-1,-1,-1,-1,-1,-1,-1,-1,-1,-1,-1,-1,-1,-1,-1,-1,-1,-1,-1,-1,-1,-1,-1,-1,-1,-1,-1,-1,-1,-1,-1,-1],"split_conditions":[4.1673E4,1.6852467E3,1.51377E5,5.561563E0,1.3E1,3.03E3,1.722E4,5.666667E2,2.1333334E0,-1.2236644E-1,1.8083838E2,2E0,1.47E2,-1.06465854E-1,3.25531E5,1.288E5,1.7142857E0,1.0526316E0,-1.1576325E-1,9.356703E1,1.174E5,1.6597345E3,3.3327975E2,3E0,-1.615255E-1,4.373078E6,2E0,1.5E0,1.3951E5,1.6960025E2,1.65E3,-9.655168E-2,8E0,4.5812264E-2,-1.2817432E-1,2.797E4,2.111923E2,2.9539444E0,4.8561907E0,-1.7047428E-1,3.10468E-4,2.0830321E0,6.5585E5,6.33E2,-1.4158879E-1,2.631579E-2,5.0201E5,4E0,-1.1912125E-1,3.5399195E-2,-1.1240467E-1,1.406E4,-9.541699E-2,1.8E1,1.36E2,5.325986E-2,9.717929E-3,-8.374039E-2,2.2884259E2,2.047129E3,3.43495E5,4.75373E5,9.328752E-3,2.462264E0,-1.5139954E-1,4.5E0,3.4002945E-2,3.0947322E3,7.92E3,3.75E0,7.0232E5,3.7182E3,-1.17269315E-1,1.6597345E3,1.27622E3,-2.7503703E-2,3.846919E-2,-1.2406112E-1,1.5E2,4.599053E-2,-1.0723996E-2,4.0028086E0,1.8615376E2,-1.2164458E-1,-2.0339317E-3,1.5238096E0,3.10468E-4,5.2225273E-2,-2.466715E-2,-1.2901866E-1,1.50771085E-2,3.723666E0,2.1967213E0,-9.208102E-2,1.47E2,2.6151E5,2.8759356E0,4.519455E0,-1.4131509E-1,2.735854E3,-1.2732117E-1,3.4069043E-2,-1.3485096E-1,1.4072471E3,3.4849176E0,-1.3777427E-1,1.0535E5,4.3925084E-2,-3.2309588E-2,7.992E4,2.1052632E0,2.2857144E0,5.56334E5,1.04759E6,5.3947803E-2,3.4543276E-2,-9.6831165E-2,-1.19718984E-1,-6.401585E-2,-8.731357E-2,1.7460091E-2,4.1985925E-2,-8.9715414E-2,4.9644355E-2,-2.768968E-2,-1.4785971E-1,3.5145402E-2,2.6255114E-2,-6.813979E-2,4.4379365E-2,-2.563485E-2,-2.2611777E-4,4.525752E-2,-5.360926E-2,3.2527596E-2,-1.3452327E-1,3.8487118E-2,4.7523975E-2,1.5562451E-2,3.9733868E-2,-1.0516957E-1,2.5984904E-2,4.4988263E-2,-5.965789E-2,3.907622E-2,-1.4454438E-1,4.1444805E-2,-1.9910777E-2,4.9333658E-2,3.8906083E-2,-4.917602E-3,5.2474577E-2,5.5657763E-2,-7.333364E-2,3.7723783E-2],"split_indices":[10,9,10,3,14,9,13,9,0,0,8,6,14,0,10,13,3,0,0,8,12,9,8,6,0,12,2,3,13,8,9,0,3,0,0,13,8,0,3,0,7,0,12,14,0,7,10,14,0,0,0,12,0,14,14,0,0,0,8,9,12,13,7,0,0,3,7,9,13,0,12,9,0,9,8,0,0,0,9,0,0,3,8,0,0,0,7,0,0,0,0,3,0,0,14,13,0,0,0,9,0,0,0,8,0,0,13,0,0,13,0,0,10,12,0,0,0,0,0,0,0,0,0,0,0,0,0,0,0,0,0,0,0,0,0,0,0,0,0,0,0,0,0,0,0,0,0,0,0,0,0,0,0,0,0],"split_type":[0,0,0,0,0,0,0,0,0,0,0,0,0,0,0,0,0,0,0,0,0,0,0,0,0,0,0,0,0,0,0,0,0,0,0,0,0,0,0,0,0,0,0,0,0,0,0,0,0,0,0,0,0,0,0,0,0,0,0,0,0,0,0,0,0,0,0,0,0,0,0,0,0,0,0,0,0,0,0,0,0,0,0,0,0,0,0,0,0,0,0,0,0,0,0,0,0,0,0,0,0,0,0,0,0,0,0,0,0,0,0,0,0,0,0,0,0,0,0,0,0,0,0,0,0,0,0,0,0,0,0,0,0,0,0,0,0,0,0,0,0,0,0,0,0,0,0,0,0,0,0,0,0,0,0],"sum_hessian":[3.9404722E3,6.519625E2,3.2885095E3,5.604465E2,9.151603E1,7.471114E2,2.5413982E3,5.32406E2,2.8040516E1,2.228713E1,6.92289E1,2.6407443E2,4.83037E2,1.3775831E0,2.5400205E3,2.1798251E2,3.1442346E2,1.3857126E1,1.418339E1,1.5480336E1,5.3748558E1,2.235345E2,4.053992E1,4.7917493E2,3.862069E0,8.7899805E2,1.6610225E3,2.1009317E2,7.889347E0,1.0635944E1,3.0378754E2,2.3059962E0,1.155113E1,3.5608177E0,1.1919518E1,3.738596E1,1.6362602E1,8.988446E1,1.3365004E2,1.3401786E1,2.7138136E1,4.6006116E2,1.911377E1,8.777352E2,1.2628124E0,1.6575204E3,3.502165E0,2.4528578E1,1.8556459E2,3.0080583E0,4.8812885E0,8.593144E0,2.0428004E0,2.2244386E2,8.1343666E1,1.0318199E1,1.2329307E0,1.348819E0,3.603714E1,9.447548E0,6.9150543E0,6.290929E1,2.6975166E1,1.302751E2,3.374941E0,1.5465368E1,1.1672768E1,4.9888263E0,4.5507233E2,1.4074742E1,5.0390267E0,8.7672723E2,1.008037E0,1.6300621E3,2.7458181E1,1.4240147E0,2.0781503E0,1.62131E1,8.315479E0,6.7636395E0,1.829505E0,6.665419E1,1.5578967E2,7.914253E1,2.2011306E0,4.3188314E0,3.1718307E1,7.520976E0,1.926572E0,5.4721255E0,1.4429287E0,1.7098925E1,4.5810368E1,1.2570623E0,2.5718103E1,8.1912735E1,4.8362362E1,6.8940396E0,8.571329E0,1.0028166E1,1.6446022E0,1.3252095E0,3.663617E0,7.6433444E0,4.47429E2,3.8486478E0,1.0226094E1,3.25581E0,1.7832168E0,1.9237985E2,6.8434735E2,3.5956678E0,1.6264664E3,8.993997E0,1.8464184E1,6.5581627E0,1.7573167E0,5.8485706E1,8.168478E0,1.3752625E2,1.826343E1,2.4832294E0,1.8356022E0,2.9841614E1,1.8766929E0,1.5711531E1,1.3873936E0,1.9922483E1,2.5887882E1,2.374315E1,1.9749537E0,9.141364E0,7.277137E1,1.2718222E1,3.5644142E1,2.7640288E0,4.1300106E0,8.60473E0,1.4234363E0,4.161948E0,3.4813967E0,1.551204E2,2.9230856E2,8.080403E0,2.1456907E0,2.8376613E0,1.8954219E2,1.5989411E0,6.827484E2,2.1283982E0,1.4672697E0,5.773124E2,1.0491542E3,1.7315358E0,7.2624607E0],"tree_param":{"num_deleted":"0","num_feature":"15","num_nodes":"155","size_leaf_vector":"1"}},{"base_weights":[4.224747E-1,-1.6096677E0,8.6133575E-1,-1.8812529E0,-6.295314E-1,3.2277778E-1,1.0259526E0,-1.7395278E0,-2.1624348E0,5.6613296E-2,-1.4160147E0,-8.0662465E-1,4.6691704E-1,9.137975E-1,1.0757462E0,-1.1331456E-1,-1.6032658E0,-2.278797E0,-1.4386873E0,-1.9061104E0,6.5143776E-1,-5.6953907E-1,-1.5795611E-1,5.375343E-1,-9.3802994E-1,9.262463E-1,-1.4783327E-1,1.0773697E0,2.3585758E-1,-3.6427194E-1,-1.803265E0,-1.1551733E-1,-1.0635947E0,5.4258466E-1,-1.0927693E-1,-2.132066E0,-3.2813677E-1,-7.203014E-2,9.1603714E-1,-1.961892E0,1.4826726E-2,1.8012285E-1,6.61972E-1,-2.139924E0,-1.2598582E-1,9.3322355E-1,-4.6414036E-2,4.5965338E-1,1.0783876E0,-2.638048E-2,3.8414355E-2,-9.698979E-2,-1.2888068E-1,-1.9521828E0,-9.853452E-1,-9.910348E-2,3.8864616E-2,5.2993722E-2,-6.7743175E-2,-2.278883E0,-5.161377E-1,3.901672E-1,-1.1534059E-1,5.486181E-2,-2.0816913E-2,-1.3830058E-1,5.532773E-1,-1.9469082E0,2.628362E-1,-5.0317895E-1,7.35363E-1,6.831249E-1,-1.5266387E-1,-1.348103E-1,-6.4779776E-1,-1.3428011E0,2.696993E-1,9.751948E-1,7.0634925E-1,3.835508E-2,-5.7892096E-3,1.0450393E0,5.518046E-2,8.1311804E-1,-6.209738E-1,-2.1330533E0,-1.2921133E0,-1.1249568E-1,-3.4364277E-1,-1.1621767E-1,-7.327474E-1,-9.083389E-2,3.5347864E-2,5.1035106E-2,-8.186929E-2,4.624334E-2,-1.367751E-2,1.873654E-2,-1.3763578E-1,4.2357266E-1,-1.24987975E-1,-2.397118E-1,-1.8134958E-1,2.5921395E-2,8.774194E-1,-1.5832633E0,7.098528E-1,-1.08712055E-1,3.9618757E-2,3.250308E-2,-1.0712369E-1,5.119718E-1,-8.0494635E-2,-2.486892E-2,9.7942907E-1,-8.5367155E-1,7.5935215E-1,9.179343E-1,5.3046476E-2,5.4577585E-2,2.0376822E-2,-9.2474565E-2,9.424794E-3,-1.08595066E-1,1.936889E-2,2.0068638E-2,-1.0356491E-1,1.196657E-2,-1.0839524E-1,1.2301908E-2,-6.96627E-2,2.6404098E-2,-1.0820861E-1,-8.383219E-2,2.6196844E-3,3.6787625E-2,-1.4518134E-1,5.007102E-2,2.4080565E-2,3.354552E-2,-1.19508065E-1,-4.9051866E-2,3.6879744E-2,4.96678E-2,-2.042092E-3,4.9184002E-2,-2.4766134E-2,-1.2081901E-1,3.7381724E-2,4.6513215E-2,7.1255425E-3,5.1080056E-2,-2.1437256E-2],"categories":[],"categories_nodes":[],"categories_segments":[],"categories_sizes":[],"default_left":[0,0,0,0,0,0,0,0,0,0,0,0,0,0,0,0,0,0,0,0,0,0,0,0,0,0,0,0,0,0,0,0,0,0,0,0,0,0,0,0,0,0,0,0,0,0,0,0,0,0,0,0,0,0,0,0,0,0,0,0,0,0,0,0,0,0,0,0,0,0,0,0,0,0,0,0,0,0,0,0,0,0,0,0,0,0,0,0,0,0,0,0,0,0,0,0,0,0,0,0,0,0,0,0,0,0,0,0,0,0,0,0,0,0,0,0,0,0,0,0,0,0,0,0,0,0,0,0,0,0,0,0,0,0,0,0,0,0,0,0,0,0,0,0,0,0,0,0,0,0,0,0,0],"id":8,"left_children":[1,3,5,7,9,11,13,15,17,-1,19,21,23,25,27,-1,29,31,33,35,37,39,-1,41,43,45,-1,47,49,51,53,-1,55,57,-1,59,61,-1,63,65,67,69,71,73,75,77,-1,79,81,-1,-1,-1,83,85,87,-1,-1,-1,-1,89,91,93,-1,-1,-1,-1,95,97,99,101,103,105,-1,-1,107,109,111,113,115,-1,-1,117,-1,119,121,123,125,-1,127,-1,129,-1,-1,-1,-1,-1,-1,-1,-1,131,-1,133,-1,135,137,139,141,-1,-1,-1,-1,143,-1,-1,145,147,149,151,-1,-1,-1,-1,-1,-1,-1,-1,-1,-1,-1,-1,-1,-1,-1,-1,-1,-1,-1,-1,-1,-1,-1,-1,-1,-1,-1,-1,-1,-1,-1,-1,-1,-1,-1],"loss_changes":[3.4518545E3,1.8182104E2,2.8181445E2,1.7671143E1,2.1037357E2,1.2189952E2,1.2626465E1,2.2400757E1,1.1554016E1,0E0,1.0723956E2,4.5527966E1,6.624713E1,3.9161438E1,2.0395508E0,0E0,7.159613E1,3.2943726E0,4.1296707E1,2.954309E1,1.2828968E1,6.374228E1,0E0,2.7969833E1,3.1037085E1,1.0626221E1,0E0,5.596924E-1,2.2449937E0,1.5244217E1,2.8624878E1,0E0,1.1092625E1,9.506099E0,0E0,1.638324E1,1.7680136E1,0E0,5.0604553E0,4.836464E1,2.783001E1,6.2771423E1,3.887201E1,8.937054E0,1.0090664E1,6.4712524E0,0E0,8.8571954E-1,2.5561523E-1,0E0,0E0,0E0,1.785065E1,2.2452698E1,3.2212627E1,0E0,0E0,0E0,0E0,3.0462952E0,1.3146562E1,1.3838402E1,0E0,0E0,0E0,0E0,2.2325983E0,1.3043592E1,2.3584826E1,6.030439E1,9.163128E0,2.9367752E1,0E0,0E0,1.2300466E1,9.560821E0,8.146706E0,4.427368E0,1.065469E1,0E0,0E0,5.210571E-1,0E0,1.0540428E0,2.5355213E1,1.6918945E1,6.410531E1,0E0,3.0451817E1,0E0,2.5346656E0,0E0,0E0,0E0,0E0,0E0,0E0,0E0,0E0,1.4338983E1,0E0,2.9308887E1,0E0,3.590014E1,3.243435E0,1.2051477E1,2.2372513E1,0E0,0E0,0E0,0E0,4.0330734E0,0E0,0E0,4.439575E0,1.2935467E1,1.22623825E1,1.2956108E1,0E0,0E0,0E0,0E0,0E0,0E0,0E0,0E0,0E0,0E0,0E0,0E0,0E0,0E0,0E0,0E0,0E0,0E0,0E0,0E0,0E0,0E0,0E0,0E0,0E0,0E0,0E0,0E0,0E0,0E0,0E0,0E0,0E0,0E0,0E0],"parents":[2147483647,0,0,1,1,2,2,3,3,4,4,5,5,6,6,7,7,8,8,10,10,11,11,12,12,13,13,14,14,16,16,17,17,18,18,19,19,20,20,21,21,23,23,24,24,25,25,27,27,28,28,29,29,30,30,32,32,33,33,35,35,36,36,38,38,39,39,40,40,41,41,42,42,43,43,44,44,45,45,47,47,48,48,52,52,53,53,54,54,59,59,60,60,61,61,66,66,67,67,68,68,69,69,70,70,71,71,74,74,75,75,76,76,77,77,78,78,81,81,83,83,84,84,85,85,86,86,88,88,90,90,99,99,101,101,103,103,104,104,105,105,106,106,111,111,114,114,115,115,116,116,117,117],"right_children":[2,4,6,8,10,12,14,16,18,-1,20,22,24,26,28,-1,30,32,34,36,38,40,-1,42,44,46,-1,48,50,52,54,-1,56,58,-1,60,62,-1,64,66,68,70,72,74,76,78,-1,80,82,-1,-1,-1,84,86,88,-1,-1,-1,-1,90,92,94,-1,-1,-1,-1,96,98,100,102,104,106,-1,-1,108,110,112,114,116,-1,-1,118,-1,120,122,124,126,-1,128,-1,130,-1,-1,-1,-1,-1,-1,-1,-1,132,-1,134,-1,136,138,140,142,-1,-1,-1,-1,144,-1,-1,146,148,150,152,-1,-1,-1,-1,-1,-1,-1,-1,-1,-1,-1,-1,-1,-1,-1,-1,-1,-1,-1,-1,-1,-1,-1,-1,-1,-1,-1,-1,-1,-1,-1,-1,-1,-1,-1],"split_conditions":[4.471E4,2.1640588E-4,1.5738E5,2.5092695E0,1E0,1.6597345E3,3.10029E5,8E3,3.846154E-2,5.6613296E-2,4.3003535E3,2.35E2,3E0,4.98E2,2E0,-1.1331456E-1,1.5E4,6.27288E5,4E-2,4.1673E4,1.8E4,4.75373E5,-1.5795611E-1,3.03E3,4.892588E3,4.11707E6,-1.4783327E-1,1.6597345E3,6.853E4,6.6666664E1,1.773798E2,-1.1551733E-1,3.177736E0,3.2073708E0,-1.0927693E-1,5.0558563E-2,4.348E4,-7.203014E-2,1.9E1,3.9532166E2,9.328752E-3,2.81812E5,1.34588E6,4.80397E5,2.3301E5,3E0,-4.6414036E-2,2.2857144E0,5.81656E5,-2.638048E-2,3.8414355E-2,-9.698979E-2,1.5E2,3.2736E5,7.46E3,-9.910348E-2,3.8864616E-2,5.2993722E-2,-6.7743175E-2,3.7699856E3,1.1987E5,4.2575656E2,-1.1534059E-1,5.486181E-2,-2.0816913E-2,-1.3830058E-1,2.7396195E0,4.83798E5,1.2594697E2,1.5387E5,8.311334E-3,2.0434783E0,-1.5266387E-1,-1.348103E-1,2.215727E2,5.5023325E3,7.4E1,2.15E0,3.047E4,3.835508E-2,-5.7892096E-3,4.012345E3,5.518046E-2,3E0,2.7E3,3.6E4,9.5E2,-1.1249568E-1,1.0474E5,-1.1621767E-1,3.889372E3,-9.083389E-2,3.5347864E-2,5.1035106E-2,-8.186929E-2,4.624334E-2,-1.367751E-2,1.873654E-2,-1.3763578E-1,4.7595176E-4,-1.24987975E-1,1.59126E5,-1.8134958E-1,1.28E2,2.5092695E0,3.0947322E3,7.29E3,-1.08712055E-1,3.9618757E-2,3.250308E-2,-1.0712369E-1,4.470559E2,-8.0494635E-2,-2.486892E-2,4.325451E-2,2.31209E5,8.3E1,2.8924625E2,5.3046476E-2,5.4577585E-2,2.0376822E-2,-9.2474565E-2,9.424794E-3,-1.08595066E-1,1.936889E-2,2.0068638E-2,-1.0356491E-1,1.196657E-2,-1.0839524E-1,1.2301908E-2,-6.96627E-2,2.6404098E-2,-1.0820861E-1,-8.383219E-2,2.6196844E-3,3.6787625E-2,-1.4518134E-1,5.007102E-2,2.4080565E-2,3.354552E-2,-1.19508065E-1,-4.9051866E-2,3.6879744E-2,4.96678E-2,-2.042092E-3,4.9184002E-2,-2.4766134E-2,-1.2081901E-1,3.7381724E-2,4.6513215E-2,7.1255425E-3,5.1080056E-2,-2.1437256E-2],"split_indices":[10,5,10,0,6,9,10,12,7,0,9,14,6,14,2,0,12,12,7,10,13,13,0,9,9,12,0,9,13,9,8,0,0,0,0,7,13,0,14,8,7,13,12,12,12,6,0,0,10,0,0,0,9,12,10,0,0,0,0,9,13,8,0,0,0,0,0,13,8,13,7,0,0,0,8,9,14,0,13,0,0,9,0,4,10,10,9,0,12,0,9,0,0,0,0,0,0,0,0,5,0,12,0,14,0,9,13,0,0,0,0,8,0,0,7,10,14,8,0,0,0,0,0,0,0,0,0,0,0,0,0,0,0,0,0,0,0,0,0,0,0,0,0,0,0,0,0,0,0,0,0,0,0],"split_type":[0,0,0,0,0,0,0,0,0,0,0,0,0,0,0,0,0,0,0,0,0,0,0,0,0,0,0,0,0,0,0,0,0,0,0,0,0,0,0,0,0,0,0,0,0,0,0,0,0,0,0,0,0,0,0,0,0,0,0,0,0,0,0,0,0,0,0,0,0,0,0,0,0,0,0,0,0,0,0,0,0,0,0,0,0,0,0,0,0,0,0,0,0,0,0,0,0,0,0,0,0,0,0,0,0,0,0,0,0,0,0,0,0,0,0,0,0,0,0,0,0,0,0,0,0,0,0,0,0,0,0,0,0,0,0,0,0,0,0,0,0,0,0,0,0,0,0,0,0,0,0,0,0],"sum_hessian":[3.8679836E3,6.86497E2,3.1814868E3,5.3682825E2,1.4966876E2,7.454955E2,2.4359912E3,3.6170392E2,1.7512434E2,4.6057014E1,1.0361175E2,8.385486E1,6.616406E2,7.549328E2,1.6810585E3,7.1123215E1,2.905807E2,1.4901721E2,2.6107147E1,8.382E1,1.979174E1,7.730603E1,6.5488315E0,6.305638E2,3.107681E1,7.532707E2,1.6620992E0,1.6775328E3,3.5256388E0,4.077865E1,2.4980205E2,1.4436784E2,4.6493545E0,7.2219687E0,1.8885178E1,7.301376E1,1.080624E1,1.7231649E0,1.8068577E1,2.2156654E1,5.5149376E1,1.634754E2,4.670884E2,1.1871199E1,1.9205612E1,7.509422E2,2.328479E0,3.5043738E0,1.6740284E3,1.4522561E0,2.0733826E0,4.359417E0,3.641923E1,2.1015295E2,3.9649094E1,3.0506158E0,1.5987384E0,6.0217237E0,1.2002449E0,6.6556435E1,6.457326E0,8.5171385E0,2.289101E0,1.6060833E1,2.0077431E0,1.6713488E1,5.443167E0,5.420839E0,4.9728535E1,7.332829E1,9.01471E1,4.6525558E2,1.8328165E0,8.05955E0,3.811649E0,4.1254306E0,1.5080181E1,6.3092426E2,1.2001795E2,2.0669541E0,1.4374195E0,7.3914764E2,9.348808E2,1.2273014E1,2.4146217E1,1.632014E2,4.6951557E1,1.2503315E1,2.7145777E1,6.416604E1,2.390396E0,2.894373E0,3.5629532E0,6.875544E0,1.6415946E0,3.673614E0,1.7695534E0,1.5345515E0,3.8862872E0,4.7794384E1,1.9341509E0,6.861771E1,4.710585E0,1.5236618E1,7.4910484E1,4.7441106E0,4.6051147E2,1.6029595E0,2.2086897E0,1.2349371E0,2.8904936E0,1.4002877E1,1.0773038E0,1.4750445E0,6.294492E2,3.4473345E0,1.1657061E2,8.866742E1,6.504802E2,6.2743316E0,5.998682E0,9.080338E0,1.506588E1,1.6086029E2,2.3411026E0,1.4948109E1,3.200345E1,2.1230133E1,5.915645E0,1.2159765E0,1.1744196E0,4.670411E1,1.0902742E0,1.07915945E1,5.7826115E1,1.2867634E1,2.3689835E0,5.5875446E1,1.9035038E1,1.2949715E0,3.4491389E0,6.8788533E0,4.5363263E2,7.059035E0,6.943843E0,6.279721E2,1.4771367E0,1.4870865E0,1.9602481E0,9.088142E1,2.5689198E1,8.255385E1,6.1135674E0],"tree_param":{"num_deleted":"0","num_feature":"15","num_nodes":"153","size_leaf_vector":"1"}},{"base_weights":[4.1152567E-1,-1.467719E0,8.405885E-1,-1.6963168E0,-5.363729E-2,2.8811002E-1,1.0428362E0,-1.8358669E0,-7.076073E-1,-2.0047684E0,1.17046356E-1,-2.2247685E-1,1.0093055E0,3.6431956E-1,1.0673736E0,-1.7500045E0,-2.1869805E0,5.4934043E-2,-1.5367746E0,1.8525986E-2,-1.3139403E-1,2.4227133E-1,-1.3208513E-1,-1.6381629E0,-2.0372765E-2,1.0265038E0,3.891628E-1,-1.5059699E0,8.3005947E-1,9.6458775E-1,1.0922447E0,-1.8588908E0,-1.3329185E0,-1.051069E0,-1.1235309E-1,-1.0528574E-1,-5.458611E-1,3.113759E-1,-1.04640976E-1,-1.1761566E-1,-2.3711932E-1,-3.4971982E-1,3.731012E-1,1.0319568E0,6.0975263E-3,-5.153901E-2,7.824406E-1,-4.489194E-1,-1.3963664E-1,9.395984E-1,-1.0230054E-1,-4.6728864E-2,9.7507524E-1,5.4664988E-2,6.686713E-1,-1.9467254E0,-1.1194999E0,-1.8865712E0,-7.549988E-1,-9.0370946E-2,4.031827E-2,6.425654E-1,-1.7048445E0,9.1814995E-1,5.1842753E-2,-1.0860546E-1,2.77276E-1,-2.2779618E-1,-2.111127E0,-1.1147542E-1,4.4179946E-1,-8.613061E-2,1.0402981E0,4.83799E-2,5.6311055E-3,-9.899579E-2,9.868652E-2,5.4126766E-2,5.997823E-1,1.023618E0,7.512991E-1,-1.7587798E-2,4.6426173E-2,-2.0135412E0,-1.1413134E0,1.3733706E-1,-1.1603407E-1,-1.0649178E-1,-1.2177205E0,2.1306823E-1,-1.0592562E-1,9.21402E-1,-1.7538441E-2,-1.0847797E-1,-3.9460188E-1,2.7161852E-1,1.0390342E0,2.8437883E-1,-1.5216729E-1,8.1183416E-1,-1.6621665E0,-7.742532E-1,4.7024614E-1,-1.7325078E-1,-7.6111746E-1,8.938239E-1,1.575991E-1,7.5517036E-3,-1.3856343E-2,9.6910137E-1,5.559594E-2,4.6590354E-2,-7.716312E-1,-5.0935693E-2,7.679785E-1,1.1030599E0,9.573494E-1,-7.010017E-2,9.24509E-1,-8.879738E-2,-1.0587678E-1,-1.0579556E-1,1.883216E-2,3.1864423E-2,-5.7082385E-2,-9.459808E-2,-1.3115349E-2,2.7615732E-2,-8.5895784E-2,4.9703624E-2,1.3974363E-2,3.8441163E-2,-7.320024E-2,-2.1762904E-2,4.1208934E-2,5.5781126E-2,2.1467624E-2,-2.5532965E-2,3.9648067E-2,1.1951093E-3,4.770494E-2,3.0741945E-2,-1.3578431E-1,-1.924259E-2,-9.967181E-2,3.7298992E-2,-8.8446505E-2,9.1819875E-3,-1.4982168E-1,5.3350985E-2,2.4873367E-2,-2.7619122E-2,2.844745E-2,5.186847E-2,-3.7419596E-3,-1.233423E-1,2.6752805E-2,4.76126E-2,-3.7333418E-2,5.5476736E-2,4.672374E-3,4.999406E-2,1.6748106E-2,2.1497736E-2,-6.586172E-2,-1.9047903E-2,4.819588E-2],"categories":[],"categories_nodes":[],"categories_segments":[],"categories_sizes":[],"default_left":[0,0,0,0,0,0,0,0,0,0,0,0,0,0,0,0,0,0,0,0,0,0,0,0,0,0,0,0,0,0,0,0,0,0,0,0,0,0,0,0,0,0,0,0,0,0,0,0,0,0,0,0,0,0,0,0,0,0,0,0,0,0,0,0,0,0,0,0,0,0,0,0,0,0,0,0,0,0,0,0,0,0,0,0,0,0,0,0,0,0,0,0,0,0,0,0,0,0,0,0,0,0,0,0,0,0,0,0,0,0,0,0,0,0,0,0,0,0,0,0,0,0,0,0,0,0,0,0,0,0,0,0,0,0,0,0,0,0,0,0,0,0,0,0,0,0,0,0,0,0,0,0,0,0,0,0,0,0,0,0,0,0,0,0,0,0,0],"id":9,"left_children":[1,3,5,7,9,11,13,15,17,19,21,23,25,27,29,31,33,-1,35,-1,-1,37,-1,39,41,43,45,47,49,51,53,55,57,59,-1,-1,61,63,-1,-1,65,67,69,71,-1,-1,73,75,-1,77,-1,-1,79,-1,81,83,85,87,89,-1,-1,91,93,95,97,-1,99,101,103,-1,105,107,109,-1,-1,-1,111,-1,113,115,117,-1,-1,119,121,123,-1,-1,125,127,-1,129,-1,-1,131,133,135,137,-1,139,141,143,145,-1,147,149,151,-1,-1,153,-1,-1,155,-1,157,159,161,163,165,-1,-1,-1,-1,-1,-1,-1,-1,-1,-1,-1,-1,-1,-1,-1,-1,-1,-1,-1,-1,-1,-1,-1,-1,-1,-1,-1,-1,-1,-1,-1,-1,-1,-1,-1,-1,-1,-1,-1,-1,-1,-1,-1,-1,-1,-1,-1,-1],"loss_changes":[3.0254412E3,2.2538904E2,3.4096045E2,8.154443E1,3.2905075E1,3.0210626E2,3.682715E1,1.2016113E1,1.1535231E2,1.2735342E1,3.2130802E1,1.375342E2,3.2268066E0,7.052932E1,4.460205E0,1.6927124E1,4.412323E0,0E0,2.8409836E1,0E0,0E0,1.4870029E1,0E0,5.9528732E1,5.4785805E1,1.5029297E0,6.8294206E0,2.079763E1,2.2186398E1,9.451019E0,4.1503906E-2,1.96604E1,2.800888E1,1.1102045E1,0E0,0E0,2.929533E1,1.3566493E1,0E0,0E0,2.1890594E1,4.8935463E1,3.5430504E1,3.1496277E0,0E0,0E0,1.0090294E0,8.656407E0,0E0,2.3936157E0,0E0,0E0,3.868164E0,0E0,2.1483397E0,1.3804565E1,5.7777817E1,4.941986E0,6.2061188E1,0E0,0E0,3.3241825E0,5.621868E0,1.7372799E0,4.5209698E1,0E0,1.9785763E1,8.2882416E1,2.436892E1,0E0,2.4079258E1,1.9374669E-1,5.834656E-1,0E0,0E0,0E0,6.7994175E0,0E0,6.442274E0,7.762451E-1,1.1426182E1,0E0,0E0,3.0340576E0,3.812269E1,1.3224168E1,0E0,0E0,8.964779E0,1.9424885E1,0E0,1.2967396E-1,0E0,0E0,6.1119394E0,2.4773853E0,5.2098274E-1,2.394594E1,0E0,1.6151714E0,1.1674221E1,5.7017998E1,6.0351555E1,0E0,1.8880678E1,4.4505463E0,3.4475292E1,0E0,0E0,1.2274673E1,0E0,0E0,1.1616601E1,0E0,6.1269264E0,8.880768E-1,4.888397E0,9.818747E0,3.7636795E0,0E0,0E0,0E0,0E0,0E0,0E0,0E0,0E0,0E0,0E0,0E0,0E0,0E0,0E0,0E0,0E0,0E0,0E0,0E0,0E0,0E0,0E0,0E0,0E0,0E0,0E0,0E0,0E0,0E0,0E0,0E0,0E0,0E0,0E0,0E0,0E0,0E0,0E0,0E0,0E0,0E0,0E0,0E0,0E0,0E0,0E0,0E0,0E0],"parents":[2147483647,0,0,1,1,2,2,3,3,4,4,5,5,6,6,7,7,8,8,9,9,10,10,11,11,12,12,13,13,14,14,15,15,16,16,18,18,21,21,23,23,24,24,25,25,26,26,27,27,28,28,29,29,30,30,31,31,32,32,33,33,36,36,37,37,40,40,41,41,42,42,43,43,46,46,47,47,49,49,52,52,54,54,55,55,56,56,57,57,58,58,61,61,62,62,63,63,64,64,66,66,67,67,68,68,70,70,71,71,72,72,76,76,78,78,79,79,80,80,83,83,84,84,85,85,88,88,89,89,91,91,94,94,95,95,96,96,97,97,99,99,100,100,101,101,102,102,104,104,105,105,106,106,109,109,112,112,114,114,115,115,116,116,117,117,118,118],"right_children":[2,4,6,8,10,12,14,16,18,20,22,24,26,28,30,32,34,-1,36,-1,-1,38,-1,40,42,44,46,48,50,52,54,56,58,60,-1,-1,62,64,-1,-1,66,68,70,72,-1,-1,74,76,-1,78,-1,-1,80,-1,82,84,86,88,90,-1,-1,92,94,96,98,-1,100,102,104,-1,106,108,110,-1,-1,-1,112,-1,114,116,118,-1,-1,120,122,124,-1,-1,126,128,-1,130,-1,-1,132,134,136,138,-1,140,142,144,146,-1,148,150,152,-1,-1,154,-1,-1,156,-1,158,160,162,164,166,-1,-1,-1,-1,-1,-1,-1,-1,-1,-1,-1,-1,-1,-1,-1,-1,-1,-1,-1,-1,-1,-1,-1,-1,-1,-1,-1,-1,-1,-1,-1,-1,-1,-1,-1,-1,-1,-1,-1,-1,-1,-1,-1,-1,-1,-1,-1,-1],"split_conditions":[1.6597345E3,4.75373E5,2.2E1,2.1640588E-4,8.154444E-3,8.6881E5,3.03E3,1.5E3,1E0,4.83798E5,1.2594697E2,2.858E4,7.020161E3,3.10468E-4,5.0304644E3,1.281797E2,2.177551E2,5.4934043E-2,1.5108806E3,1.8525986E-2,-1.3139403E-1,3.3167496E-3,-1.3208513E-1,1.9E1,2.1575E3,6.277551E-2,3.142056E6,2.6E1,3.5E1,1.502E4,4.6511628E-2,3.2736E5,1E1,6.5585E5,-1.1235309E-1,-1.0528574E-1,1.6E3,1.04E2,-1.04640976E-1,-1.1761566E-1,3.03E3,1.56E2,1.2E1,8.311334E-3,6.0975263E-3,-5.153901E-2,1.02752885E-2,4.348E4,-1.3963664E-1,2E0,-1.0230054E-1,-4.6728864E-2,3E0,5.4664988E-2,2.6E1,1.3744E5,1.5067E5,3.4E4,2E1,-9.0370946E-2,4.031827E-2,4.528E4,2.0833334E-2,8.6E1,1.904762E-2,-1.0860546E-1,1.677E5,2.81812E5,7.42125E2,-1.1147542E-1,2E0,2.75E3,2.916416E6,4.83799E-2,5.6311055E-3,-9.899579E-2,2.9E1,5.4126766E-2,8.032128E-3,2.8022162E2,4.012345E3,-1.7587798E-2,4.6426173E-2,1.2918E4,3.846154E-2,3.7924E5,-1.1603407E-1,-1.0649178E-1,7.6228265E2,9.226E4,-1.0592562E-1,1.633633E-1,-1.7538441E-2,-1.0847797E-1,2.255639E-2,1.2113636E2,3.138889E2,1.167964E6,-1.5216729E-1,9.912E4,7.540343E-2,1.4263E5,2E0,-1.7325078E-1,5.2649854E3,2.1E1,4.5071E5,7.5517036E-3,-1.3856343E-2,4.3E2,5.559594E-2,4.6590354E-2,1.3744E5,-5.0935693E-2,2.7272727E-2,2.5E-2,8.24778E5,2.8E1,3.047E4,-8.879738E-2,-1.0587678E-1,-1.0579556E-1,1.883216E-2,3.1864423E-2,-5.7082385E-2,-9.459808E-2,-1.3115349E-2,2.7615732E-2,-8.5895784E-2,4.9703624E-2,1.3974363E-2,3.8441163E-2,-7.320024E-2,-2.1762904E-2,4.1208934E-2,5.5781126E-2,2.1467624E-2,-2.5532965E-2,3.9648067E-2,1.1951093E-3,4.770494E-2,3.0741945E-2,-1.3578431E-1,-1.924259E-2,-9.967181E-2,3.7298992E-2,-8.8446505E-2,9.1819875E-3,-1.4982168E-1,5.3350985E-2,2.4873367E-2,-2.7619122E-2,2.844745E-2,5.186847E-2,-3.7419596E-3,-1.233423E-1,2.6752805E-2,4.76126E-2,-3.7333418E-2,5.5476736E-2,4.672374E-3,4.999406E-2,1.6748106E-2,2.1497736E-2,-6.586172E-2,-1.9047903E-2,4.819588E-2],"split_indices":[9,13,1,5,7,13,9,9,6,13,8,13,9,7,9,8,11,0,9,0,0,5,0,1,11,5,12,1,1,13,7,12,14,12,0,0,9,14,0,0,9,14,1,7,0,0,7,13,0,6,0,0,6,0,1,13,13,12,1,0,0,13,7,14,7,0,12,13,11,0,6,9,13,0,0,0,14,0,7,8,9,0,0,12,7,12,0,0,11,12,0,5,0,0,5,8,11,13,0,12,5,13,6,0,9,1,12,0,0,14,0,0,13,0,7,7,12,1,13,0,0,0,0,0,0,0,0,0,0,0,0,0,0,0,0,0,0,0,0,0,0,0,0,0,0,0,0,0,0,0,0,0,0,0,0,0,0,0,